<?xml version="1.0"?>
<opencv_storage>
<stage5>
  <maxWeakCount>5</maxWeakCount>
  <stageThreshold>-6.4802408218383789e-01</stageThreshold>
  <weakClassifiers>
    <_>
      <internalNodes>
        0 -1 8334148 -1.5922076272545382e-05</internalNodes>
      <leafValues>
        -9.0283399820327759e-01 5.7701516151428223e-01</leafValues></_>
    <_>
      <internalNodes>
        0 -1 312446 2.1226165699772537e-04</internalNodes>
      <leafValues>
        -7.7545988559722900e-01 3.6887058615684509e-01</leafValues></_>
    <_>
      <internalNodes>
        0 -1 8506076 7.0181704359129071e-06</internalNodes>
      <leafValues>
        2.6563346385955811e-01 -8.9940857887268066e-01</leafValues></_>
    <_>
      <internalNodes>
        0 -1 7568394 8.7376773357391357e-02</internalNodes>
      <leafValues>
        -6.1632382869720459e-01 3.9787855744361877e-01</leafValues></_>
    <_>
      <internalNodes>
        0 -1 8501352 2.1997955627739429e-05</internalNodes>
      <leafValues>
        2.3662970960140228e-01 -8.5868448019027710e-01</leafValues></_></weakClassifiers></stage5>
</opencv_storage>
