<?xml version="1.0"?>
<opencv_storage>
<stage7>
  <maxWeakCount>9</maxWeakCount>
  <stageThreshold>-7.9788166284561157e-01</stageThreshold>
  <weakClassifiers>
    <_>
      <internalNodes>
        0 -1 10495435 5.0262991862837225e-05</internalNodes>
      <leafValues>
        -3.7050804495811462e-01 5.9233927726745605e-01</leafValues></_>
    <_>
      <internalNodes>
        0 -1 6460880 4.1283798054791987e-04</internalNodes>
      <leafValues>
        -4.2580258846282959e-01 4.5516791939735413e-01</leafValues></_>
    <_>
      <internalNodes>
        0 -1 11284718 1.2132916708651464e-05</internalNodes>
      <leafValues>
        2.1087756752967834e-01 -8.6491513252258301e-01</leafValues></_>
    <_>
      <internalNodes>
        0 -1 11572470 -4.9779092660173774e-04</internalNodes>
      <leafValues>
        6.7819809913635254e-01 -2.7551287412643433e-01</leafValues></_>
    <_>
      <internalNodes>
        0 -1 9453696 1.4928791671991348e-02</internalNodes>
      <leafValues>
        -3.3582445979118347e-01 6.4974337816238403e-01</leafValues></_>
    <_>
      <internalNodes>
        0 -1 5706202 -6.5273970365524292e-02</internalNodes>
      <leafValues>
        3.0033874511718750e-01 -7.4889665842056274e-01</leafValues></_>
    <_>
      <internalNodes>
        0 -1 9822123 5.4751773132011294e-04</internalNodes>
      <leafValues>
        -4.3299502134323120e-01 4.1330698132514954e-01</leafValues></_>
    <_>
      <internalNodes>
        0 -1 8199634 3.2530706375837326e-03</internalNodes>
      <leafValues>
        -5.7929617166519165e-01 3.1919103860855103e-01</leafValues></_>
    <_>
      <internalNodes>
        0 -1 8555030 9.6436306193936616e-06</internalNodes>
      <leafValues>
        3.3360239863395691e-01 -5.4653477668762207e-01</leafValues></_></weakClassifiers></stage7>
</opencv_storage>
