<?xml version="1.0"?>
<opencv_storage>
<stage13>
  <maxWeakCount>10</maxWeakCount>
  <stageThreshold>-6.4080178737640381e-01</stageThreshold>
  <weakClassifiers>
    <_>
      <internalNodes>
        0 -1 8384012 1.3399298040894791e-05</internalNodes>
      <leafValues>
        5.4427081346511841e-01 -3.6494252085685730e-01</leafValues></_>
    <_>
      <internalNodes>
        0 -1 5566421 6.0226500499993563e-04</internalNodes>
      <leafValues>
        -3.5379749536514282e-01 3.8972398638725281e-01</leafValues></_>
    <_>
      <internalNodes>
        0 -1 4511684 -8.5356342606246471e-04</internalNodes>
      <leafValues>
        4.2202660441398621e-01 -3.3888795971870422e-01</leafValues></_>
    <_>
      <internalNodes>
        0 -1 11282138 2.4949320504674688e-05</internalNodes>
      <leafValues>
        1.9328877329826355e-01 -7.6413357257843018e-01</leafValues></_>
    <_>
      <internalNodes>
        0 -1 10302869 -1.6142478852998465e-04</internalNodes>
      <leafValues>
        3.3213406801223755e-01 -4.1070237755775452e-01</leafValues></_>
    <_>
      <internalNodes>
        0 -1 11283011 -2.5423891202080995e-05</internalNodes>
      <leafValues>
        -7.7274918556213379e-01 1.3860629498958588e-01</leafValues></_>
    <_>
      <internalNodes>
        0 -1 3960113 5.5697523057460785e-03</internalNodes>
      <leafValues>
        -2.0919696986675262e-01 6.7488181591033936e-01</leafValues></_>
    <_>
      <internalNodes>
        0 -1 10374344 2.1665340755134821e-03</internalNodes>
      <leafValues>
        -4.2557153105735779e-01 4.3253481388092041e-01</leafValues></_>
    <_>
      <internalNodes>
        0 -1 6384928 -3.2490309327840805e-02</internalNodes>
      <leafValues>
        2.1349781751632690e-01 -7.9419952630996704e-01</leafValues></_>
    <_>
      <internalNodes>
        0 -1 10712546 -9.5613708253949881e-05</internalNodes>
      <leafValues>
        3.2875704765319824e-01 -4.1986268758773804e-01</leafValues></_></weakClassifiers></stage13>
</opencv_storage>
