<?xml version="1.0"?>
<opencv_storage>
<cascade>
  <stageType>BOOST</stageType>
  <featureType>HAAR</featureType>
  <height>70</height>
  <width>70</width>
  <stageParams>
    <boostType>GAB</boostType>
    <minHitRate>9.9500000476837158e-01</minHitRate>
    <maxFalseAlarm>5.0000000000000000e-01</maxFalseAlarm>
    <weightTrimRate>9.4999999999999996e-01</weightTrimRate>
    <maxDepth>1</maxDepth>
    <maxWeakCount>100</maxWeakCount></stageParams>
  <featureParams>
    <maxCatCount>0</maxCatCount>
    <featSize>1</featSize>
    <mode>BASIC</mode></featureParams>
  <stageNum>10</stageNum>
  <stages>
    <!-- stage 0 -->
    <_>
      <maxWeakCount>2</maxWeakCount>
      <stageThreshold>-8.3037070930004120e-02</stageThreshold>
      <weakClassifiers>
        <_>
          <internalNodes>
            0 -1 8 5.4806657135486603e-02</internalNodes>
          <leafValues>
            -9.0974360704421997e-01 9.3185186386108398e-01</leafValues></_>
        <_>
          <internalNodes>
            0 -1 17 -1.9227057695388794e-02</internalNodes>
          <leafValues>
            8.2670652866363525e-01 -8.1242096424102783e-01</leafValues></_></weakClassifiers></_>
    <!-- stage 1 -->
    <_>
      <maxWeakCount>3</maxWeakCount>
      <stageThreshold>-8.8153237104415894e-01</stageThreshold>
      <weakClassifiers>
        <_>
          <internalNodes>
            0 -1 16 5.9067256748676300e-02</internalNodes>
          <leafValues>
            -7.8823530673980713e-01 8.4116220474243164e-01</leafValues></_>
        <_>
          <internalNodes>
            0 -1 11 1.2901362031698227e-02</internalNodes>
          <leafValues>
            -6.4738553762435913e-01 8.5720413923263550e-01</leafValues></_>
        <_>
          <internalNodes>
            0 -1 14 1.2575191445648670e-02</internalNodes>
          <leafValues>
            -8.8576644659042358e-01 5.5408847332000732e-01</leafValues></_></weakClassifiers></_>
    <!-- stage 2 -->
    <_>
      <maxWeakCount>4</maxWeakCount>
      <stageThreshold>-3.2513460516929626e-01</stageThreshold>
      <weakClassifiers>
        <_>
          <internalNodes>
            0 -1 28 1.4952032361179590e-03</internalNodes>
          <leafValues>
            -7.7142858505249023e-01 7.1479821205139160e-01</leafValues></_>
        <_>
          <internalNodes>
            0 -1 15 7.6140269637107849e-02</internalNodes>
          <leafValues>
            -8.0201143026351929e-01 6.1270052194595337e-01</leafValues></_>
        <_>
          <internalNodes>
            0 -1 1 4.1412613354623318e-03</internalNodes>
          <leafValues>
            -6.1111128330230713e-01 7.2796130180358887e-01</leafValues></_>
        <_>
          <internalNodes>
            0 -1 24 -2.7282689188723452e-05</internalNodes>
          <leafValues>
            -8.6923313140869141e-01 4.4470471143722534e-01</leafValues></_></weakClassifiers></_>
    <!-- stage 3 -->
    <_>
      <maxWeakCount>3</maxWeakCount>
      <stageThreshold>-9.0110170841217041e-01</stageThreshold>
      <weakClassifiers>
        <_>
          <internalNodes>
            0 -1 25 2.1208566977293231e-05</internalNodes>
          <leafValues>
            6.9178372621536255e-01 -9.6006143093109131e-01</leafValues></_>
        <_>
          <internalNodes>
            0 -1 7 -1.8077871203422546e-01</internalNodes>
          <leafValues>
            6.8572050333023071e-01 -7.1835178136825562e-01</leafValues></_>
        <_>
          <internalNodes>
            0 -1 34 -3.6161363823339343e-06</internalNodes>
          <leafValues>
            -8.7453365325927734e-01 3.8918107748031616e-01</leafValues></_></weakClassifiers></_>
    <!-- stage 4 -->
    <_>
      <maxWeakCount>5</maxWeakCount>
      <stageThreshold>-4.6510764956474304e-01</stageThreshold>
      <weakClassifiers>
        <_>
          <internalNodes>
            0 -1 4 5.1366440020501614e-03</internalNodes>
          <leafValues>
            -8.1199353933334351e-01 6.2987828254699707e-01</leafValues></_>
        <_>
          <internalNodes>
            0 -1 10 -8.4596183151006699e-03</internalNodes>
          <leafValues>
            5.2333939075469971e-01 -7.1071684360504150e-01</leafValues></_>
        <_>
          <internalNodes>
            0 -1 31 1.2645567039726302e-05</internalNodes>
          <leafValues>
            3.9586210250854492e-01 -9.3859058618545532e-01</leafValues></_>
        <_>
          <internalNodes>
            0 -1 30 -8.2884016592288390e-06</internalNodes>
          <leafValues>
            -9.5018213987350464e-01 2.6590898633003235e-01</leafValues></_>
        <_>
          <internalNodes>
            0 -1 23 9.8830293864011765e-03</internalNodes>
          <leafValues>
            -7.1124196052551270e-01 3.9583161473274231e-01</leafValues></_></weakClassifiers></_>
    <!-- stage 5 -->
    <_>
      <maxWeakCount>3</maxWeakCount>
      <stageThreshold>1.1531236767768860e-01</stageThreshold>
      <weakClassifiers>
        <_>
          <internalNodes>
            0 -1 6 8.1466883420944214e-02</internalNodes>
          <leafValues>
            -6.5508365631103516e-01 6.7881244421005249e-01</leafValues></_>
        <_>
          <internalNodes>
            0 -1 35 8.5545143519993871e-06</internalNodes>
          <leafValues>
            3.9585751295089722e-01 -8.6968451738357544e-01</leafValues></_>
        <_>
          <internalNodes>
            0 -1 32 -7.9899109550751746e-06</internalNodes>
          <leafValues>
            -9.0672135353088379e-01 3.7453851103782654e-01</leafValues></_></weakClassifiers></_>
    <!-- stage 6 -->
    <_>
      <maxWeakCount>5</maxWeakCount>
      <stageThreshold>-1.1712687015533447e+00</stageThreshold>
      <weakClassifiers>
        <_>
          <internalNodes>
            0 -1 29 8.6940694600343704e-03</internalNodes>
          <leafValues>
            -8.7211370468139648e-01 6.1181783676147461e-01</leafValues></_>
        <_>
          <internalNodes>
            0 -1 5 1.7112812027335167e-02</internalNodes>
          <leafValues>
            -6.5535849332809448e-01 6.1251217126846313e-01</leafValues></_>
        <_>
          <internalNodes>
            0 -1 22 1.7474143533036113e-05</internalNodes>
          <leafValues>
            3.7730020284652710e-01 -8.2350534200668335e-01</leafValues></_>
        <_>
          <internalNodes>
            0 -1 22 -1.0075729733216576e-05</internalNodes>
          <leafValues>
            -9.0308338403701782e-01 2.8359559178352356e-01</leafValues></_>
        <_>
          <internalNodes>
            0 -1 39 -1.1550446506589651e-03</internalNodes>
          <leafValues>
            5.3242862224578857e-01 -6.0194480419158936e-01</leafValues></_></weakClassifiers></_>
    <!-- stage 7 -->
    <_>
      <maxWeakCount>5</maxWeakCount>
      <stageThreshold>-1.1392577886581421e+00</stageThreshold>
      <weakClassifiers>
        <_>
          <internalNodes>
            0 -1 20 -1.9832667021546513e-05</internalNodes>
          <leafValues>
            -9.7122299671173096e-01 5.4394114017486572e-01</leafValues></_>
        <_>
          <internalNodes>
            0 -1 0 1.6858647577464581e-03</internalNodes>
          <leafValues>
            -6.2901198863983154e-01 5.8948844671249390e-01</leafValues></_>
        <_>
          <internalNodes>
            0 -1 19 1.2253323802724481e-05</internalNodes>
          <leafValues>
            4.2491284012794495e-01 -8.9778858423233032e-01</leafValues></_>
        <_>
          <internalNodes>
            0 -1 18 -1.6406771028414369e-03</internalNodes>
          <leafValues>
            2.7722689509391785e-01 -8.2190591096878052e-01</leafValues></_>
        <_>
          <internalNodes>
            0 -1 21 -1.5914270654320717e-02</internalNodes>
          <leafValues>
            3.8015159964561462e-01 -6.5719395875930786e-01</leafValues></_></weakClassifiers></_>
    <!-- stage 8 -->
    <_>
      <maxWeakCount>5</maxWeakCount>
      <stageThreshold>-1.1404708623886108e+00</stageThreshold>
      <weakClassifiers>
        <_>
          <internalNodes>
            0 -1 37 -2.4878082331269979e-04</internalNodes>
          <leafValues>
            5.9327590465545654e-01 -7.9679143428802490e-01</leafValues></_>
        <_>
          <internalNodes>
            0 -1 3 2.2487743990495801e-05</internalNodes>
          <leafValues>
            -8.9756500720977783e-01 3.5126140713691711e-01</leafValues></_>
        <_>
          <internalNodes>
            0 -1 27 -6.4018763623607811e-06</internalNodes>
          <leafValues>
            -8.8131231069564819e-01 2.7567622065544128e-01</leafValues></_>
        <_>
          <internalNodes>
            0 -1 38 -2.9875102918595076e-03</internalNodes>
          <leafValues>
            6.1051768064498901e-01 -4.9241003394126892e-01</leafValues></_>
        <_>
          <internalNodes>
            0 -1 33 -1.5546855138381943e-05</internalNodes>
          <leafValues>
            -7.1128582954406738e-01 3.7818658351898193e-01</leafValues></_></weakClassifiers></_>
    <!-- stage 9 -->
    <_>
      <maxWeakCount>6</maxWeakCount>
      <stageThreshold>-9.7714245319366455e-01</stageThreshold>
      <weakClassifiers>
        <_>
          <internalNodes>
            0 -1 13 7.2083771228790283e-03</internalNodes>
          <leafValues>
            -7.7327936887741089e-01 5.5147647857666016e-01</leafValues></_>
        <_>
          <internalNodes>
            0 -1 12 8.1584639847278595e-03</internalNodes>
          <leafValues>
            -6.3889312744140625e-01 4.9174511432647705e-01</leafValues></_>
        <_>
          <internalNodes>
            0 -1 36 1.1807072041847277e-05</internalNodes>
          <leafValues>
            3.1092575192451477e-01 -9.4101047515869141e-01</leafValues></_>
        <_>
          <internalNodes>
            0 -1 2 3.3020952250808477e-03</internalNodes>
          <leafValues>
            -4.9026271700859070e-01 4.8838481307029724e-01</leafValues></_>
        <_>
          <internalNodes>
            0 -1 26 -1.4093822755967267e-05</internalNodes>
          <leafValues>
            -8.1680166721343994e-01 2.8524962067604065e-01</leafValues></_>
        <_>
          <internalNodes>
            0 -1 9 -1.4530263570122770e-06</internalNodes>
          <leafValues>
            2.4085278809070587e-01 -8.7223476171493530e-01</leafValues></_></weakClassifiers></_></stages>
  <features>
    <_>
      <rects>
        <_>
          0 13 4 47 -1.</_>
        <_>
          2 13 2 47 2.</_></rects>
      <tilted>0</tilted></_>
    <_>
      <rects>
        <_>
          0 13 6 51 -1.</_>
        <_>
          3 13 3 51 2.</_></rects>
      <tilted>0</tilted></_>
    <_>
      <rects>
        <_>
          0 14 4 42 -1.</_>
        <_>
          2 14 2 42 2.</_></rects>
      <tilted>0</tilted></_>
    <_>
      <rects>
        <_>
          0 56 54 1 -1.</_>
        <_>
          27 56 27 1 2.</_></rects>
      <tilted>0</tilted></_>
    <_>
      <rects>
        <_>
          8 7 45 14 -1.</_>
        <_>
          23 7 15 14 3.</_></rects>
      <tilted>0</tilted></_>
    <_>
      <rects>
        <_>
          9 0 44 10 -1.</_>
        <_>
          9 5 44 5 2.</_></rects>
      <tilted>0</tilted></_>
    <_>
      <rects>
        <_>
          16 27 33 36 -1.</_>
        <_>
          16 45 33 18 2.</_></rects>
      <tilted>0</tilted></_>
    <_>
      <rects>
        <_>
          17 8 31 57 -1.</_>
        <_>
          17 27 31 19 3.</_></rects>
      <tilted>0</tilted></_>
    <_>
      <rects>
        <_>
          18 42 30 27 -1.</_>
        <_>
          18 51 30 9 3.</_></rects>
      <tilted>0</tilted></_>
    <_>
      <rects>
        <_>
          18 56 52 1 -1.</_>
        <_>
          44 56 26 1 2.</_></rects>
      <tilted>0</tilted></_>
    <_>
      <rects>
        <_>
          18 62 34 8 -1.</_>
        <_>
          18 66 34 4 2.</_></rects>
      <tilted>0</tilted></_>
    <_>
      <rects>
        <_>
          19 0 30 10 -1.</_>
        <_>
          19 5 30 5 2.</_></rects>
      <tilted>0</tilted></_>
    <_>
      <rects>
        <_>
          19 0 32 8 -1.</_>
        <_>
          19 4 32 4 2.</_></rects>
      <tilted>0</tilted></_>
    <_>
      <rects>
        <_>
          19 46 33 8 -1.</_>
        <_>
          19 50 33 4 2.</_></rects>
      <tilted>0</tilted></_>
    <_>
      <rects>
        <_>
          21 43 27 12 -1.</_>
        <_>
          21 49 27 6 2.</_></rects>
      <tilted>0</tilted></_>
    <_>
      <rects>
        <_>
          22 43 30 27 -1.</_>
        <_>
          22 52 30 9 3.</_></rects>
      <tilted>0</tilted></_>
    <_>
      <rects>
        <_>
          23 43 24 27 -1.</_>
        <_>
          23 52 24 9 3.</_></rects>
      <tilted>0</tilted></_>
    <_>
      <rects>
        <_>
          25 9 20 20 -1.</_>
        <_>
          25 19 20 10 2.</_></rects>
      <tilted>0</tilted></_>
    <_>
      <rects>
        <_>
          26 15 4 14 -1.</_>
        <_>
          26 22 4 7 2.</_></rects>
      <tilted>0</tilted></_>
    <_>
      <rects>
        <_>
          27 56 12 1 -1.</_>
        <_>
          33 56 6 1 2.</_></rects>
      <tilted>0</tilted></_>
    <_>
      <rects>
        <_>
          28 56 10 1 -1.</_>
        <_>
          33 56 5 1 2.</_></rects>
      <tilted>0</tilted></_>
    <_>
      <rects>
        <_>
          28 58 20 12 -1.</_>
        <_>
          28 64 20 6 2.</_></rects>
      <tilted>0</tilted></_>
    <_>
      <rects>
        <_>
          29 55 12 2 -1.</_>
        <_>
          33 55 4 2 3.</_></rects>
      <tilted>0</tilted></_>
    <_>
      <rects>
        <_>
          30 3 13 15 -1.</_>
        <_>
          30 8 13 5 3.</_></rects>
      <tilted>0</tilted></_>
    <_>
      <rects>
        <_>
          30 55 5 4 -1.</_>
        <_>
          30 57 5 2 2.</_></rects>
      <tilted>0</tilted></_>
    <_>
      <rects>
        <_>
          31 55 4 4 -1.</_>
        <_>
          31 57 4 2 2.</_></rects>
      <tilted>0</tilted></_>
    <_>
      <rects>
        <_>
          31 56 14 1 -1.</_>
        <_>
          38 56 7 1 2.</_></rects>
      <tilted>0</tilted></_>
    <_>
      <rects>
        <_>
          31 57 4 2 -1.</_>
        <_>
          31 58 4 1 2.</_></rects>
      <tilted>0</tilted></_>
    <_>
      <rects>
        <_>
          32 5 6 12 -1.</_>
        <_>
          32 9 6 4 3.</_></rects>
      <tilted>0</tilted></_>
    <_>
      <rects>
        <_>
          32 44 8 21 -1.</_>
        <_>
          32 51 8 7 3.</_></rects>
      <tilted>0</tilted></_>
    <_>
      <rects>
        <_>
          32 55 4 3 -1.</_>
        <_>
          32 56 4 1 3.</_></rects>
      <tilted>0</tilted></_>
    <_>
      <rects>
        <_>
          32 55 5 3 -1.</_>
        <_>
          32 56 5 1 3.</_></rects>
      <tilted>0</tilted></_>
    <_>
      <rects>
        <_>
          32 56 5 3 -1.</_>
        <_>
          32 57 5 1 3.</_></rects>
      <tilted>0</tilted></_>
    <_>
      <rects>
        <_>
          33 10 8 1 -1.</_>
        <_>
          37 10 4 1 2.</_></rects>
      <tilted>0</tilted></_>
    <_>
      <rects>
        <_>
          33 56 3 2 -1.</_>
        <_>
          33 57 3 1 2.</_></rects>
      <tilted>0</tilted></_>
    <_>
      <rects>
        <_>
          33 56 4 3 -1.</_>
        <_>
          33 57 4 1 3.</_></rects>
      <tilted>0</tilted></_>
    <_>
      <rects>
        <_>
          34 56 10 1 -1.</_>
        <_>
          39 56 5 1 2.</_></rects>
      <tilted>0</tilted></_>
    <_>
      <rects>
        <_>
          35 10 1 12 -1.</_>
        <_>
          35 16 1 6 2.</_></rects>
      <tilted>0</tilted></_>
    <_>
      <rects>
        <_>
          66 12 4 43 -1.</_>
        <_>
          68 12 2 43 2.</_></rects>
      <tilted>0</tilted></_>
    <_>
      <rects>
        <_>
          66 13 4 43 -1.</_>
        <_>
          68 13 2 43 2.</_></rects>
      <tilted>0</tilted></_></features></cascade>
</opencv_storage>
