<?xml version="1.0"?>
<opencv_storage>
<stage6>
  <maxWeakCount>5</maxWeakCount>
  <stageThreshold>-1.1712687015533447e+00</stageThreshold>
  <weakClassifiers>
    <_>
      <internalNodes>
        0 -1 8318162 8.6940694600343704e-03</internalNodes>
      <leafValues>
        -8.7211370468139648e-01 6.1181783676147461e-01</leafValues></_>
    <_>
      <internalNodes>
        0 -1 2791897 1.7112812027335167e-02</internalNodes>
      <leafValues>
        -6.5535849332809448e-01 6.1251217126846313e-01</leafValues></_>
    <_>
      <internalNodes>
        0 -1 7786368 1.7474143533036113e-05</internalNodes>
      <leafValues>
        3.7730020284652710e-01 -8.2350534200668335e-01</leafValues></_>
    <_>
      <internalNodes>
        0 -1 7786368 -1.0075729733216576e-05</internalNodes>
      <leafValues>
        -9.0308338403701782e-01 2.8359559178352356e-01</leafValues></_>
    <_>
      <internalNodes>
        0 -1 11555987 -1.1550446506589651e-03</internalNodes>
      <leafValues>
        5.3242862224578857e-01 -6.0194480419158936e-01</leafValues></_></weakClassifiers></stage6>
</opencv_storage>
