<?xml version="1.0"?>
<opencv_storage>
<cascade>
  <stageType>BOOST</stageType>
  <featureType>HAAR</featureType>
  <height>70</height>
  <width>70</width>
  <stageParams>
    <boostType>GAB</boostType>
    <minHitRate>9.9500000476837158e-01</minHitRate>
    <maxFalseAlarm>5.0000000000000000e-01</maxFalseAlarm>
    <weightTrimRate>9.4999999999999996e-01</weightTrimRate>
    <maxDepth>1</maxDepth>
    <maxWeakCount>100</maxWeakCount></stageParams>
  <featureParams>
    <maxCatCount>0</maxCatCount>
    <featSize>1</featSize>
    <mode>BASIC</mode></featureParams>
  <stageNum>10</stageNum>
  <stages>
    <!-- stage 0 -->
    <_>
      <maxWeakCount>2</maxWeakCount>
      <stageThreshold>2.3056574165821075e-02</stageThreshold>
      <weakClassifiers>
        <_>
          <internalNodes>
            0 -1 9 3.5123784095048904e-02</internalNodes>
          <leafValues>
            -8.6610877513885498e-01 8.9432483911514282e-01</leafValues></_>
        <_>
          <internalNodes>
            0 -1 15 -1.8576949834823608e-02</internalNodes>
          <leafValues>
            8.8916534185409546e-01 -8.5128921270370483e-01</leafValues></_></weakClassifiers></_>
    <!-- stage 1 -->
    <_>
      <maxWeakCount>3</maxWeakCount>
      <stageThreshold>-7.4336504936218262e-01</stageThreshold>
      <weakClassifiers>
        <_>
          <internalNodes>
            0 -1 16 6.2367491424083710e-02</internalNodes>
          <leafValues>
            -8.5276073217391968e-01 7.7574372291564941e-01</leafValues></_>
        <_>
          <internalNodes>
            0 -1 10 8.4515931084752083e-03</internalNodes>
          <leafValues>
            -6.4275372028350830e-01 7.3966568708419800e-01</leafValues></_>
        <_>
          <internalNodes>
            0 -1 17 5.3634118288755417e-02</internalNodes>
          <leafValues>
            -5.9909200668334961e-01 7.5214940309524536e-01</leafValues></_></weakClassifiers></_>
    <!-- stage 2 -->
    <_>
      <maxWeakCount>5</maxWeakCount>
      <stageThreshold>-9.7060805559158325e-01</stageThreshold>
      <weakClassifiers>
        <_>
          <internalNodes>
            0 -1 7 -1.3994285836815834e-02</internalNodes>
          <leafValues>
            7.3358887434005737e-01 -5.8159911632537842e-01</leafValues></_>
        <_>
          <internalNodes>
            0 -1 21 -1.5759464353322983e-02</internalNodes>
          <leafValues>
            5.9005117416381836e-01 -8.6424547433853149e-01</leafValues></_>
        <_>
          <internalNodes>
            0 -1 8 9.0982437133789062e-02</internalNodes>
          <leafValues>
            -8.0765569210052490e-01 4.1836106777191162e-01</leafValues></_>
        <_>
          <internalNodes>
            0 -1 32 4.0750447660684586e-03</internalNodes>
          <leafValues>
            -5.3196519613265991e-01 6.9868499040603638e-01</leafValues></_>
        <_>
          <internalNodes>
            0 -1 36 3.2049298170022666e-05</internalNodes>
          <leafValues>
            3.6056074500083923e-01 -9.7505700588226318e-01</leafValues></_></weakClassifiers></_>
    <!-- stage 3 -->
    <_>
      <maxWeakCount>4</maxWeakCount>
      <stageThreshold>-1.2702356576919556e+00</stageThreshold>
      <weakClassifiers>
        <_>
          <internalNodes>
            0 -1 22 3.7872575223445892e-02</internalNodes>
          <leafValues>
            -6.6086953878402710e-01 7.7307695150375366e-01</leafValues></_>
        <_>
          <internalNodes>
            0 -1 36 -2.1970776288071647e-05</internalNodes>
          <leafValues>
            -6.6575288772583008e-01 6.7460119724273682e-01</leafValues></_>
        <_>
          <internalNodes>
            0 -1 30 1.5777030959725380e-02</internalNodes>
          <leafValues>
            -5.3853756189346313e-01 5.9201824665069580e-01</leafValues></_>
        <_>
          <internalNodes>
            0 -1 12 5.6902833282947540e-02</internalNodes>
          <leafValues>
            -7.4542969465255737e-01 4.3581950664520264e-01</leafValues></_></weakClassifiers></_>
    <!-- stage 4 -->
    <_>
      <maxWeakCount>4</maxWeakCount>
      <stageThreshold>-4.2140984535217285e-01</stageThreshold>
      <weakClassifiers>
        <_>
          <internalNodes>
            0 -1 33 1.1372204426152166e-05</internalNodes>
          <leafValues>
            5.7457017898559570e-01 -8.7575149536132812e-01</leafValues></_>
        <_>
          <internalNodes>
            0 -1 28 -1.8634109437698498e-05</internalNodes>
          <leafValues>
            -9.6704268455505371e-01 4.0806818008422852e-01</leafValues></_>
        <_>
          <internalNodes>
            0 -1 0 1.7832808662205935e-03</internalNodes>
          <leafValues>
            -5.8294552564620972e-01 5.2147597074508667e-01</leafValues></_>
        <_>
          <internalNodes>
            0 -1 29 2.1410210058093071e-02</internalNodes>
          <leafValues>
            -4.5279696583747864e-01 6.2921899557113647e-01</leafValues></_></weakClassifiers></_>
    <!-- stage 5 -->
    <_>
      <maxWeakCount>6</maxWeakCount>
      <stageThreshold>-1.0528568029403687e+00</stageThreshold>
      <weakClassifiers>
        <_>
          <internalNodes>
            0 -1 13 3.4542053937911987e-02</internalNodes>
          <leafValues>
            -6.6255146265029907e-01 6.5301626920700073e-01</leafValues></_>
        <_>
          <internalNodes>
            0 -1 38 -1.2165251064288896e-05</internalNodes>
          <leafValues>
            -8.1791090965270996e-01 4.7203239798545837e-01</leafValues></_>
        <_>
          <internalNodes>
            0 -1 37 3.0253842851379886e-05</internalNodes>
          <leafValues>
            2.8952458500862122e-01 -9.3259310722351074e-01</leafValues></_>
        <_>
          <internalNodes>
            0 -1 35 -2.1903033484704792e-05</internalNodes>
          <leafValues>
            -9.4062829017639160e-01 1.9552904367446899e-01</leafValues></_>
        <_>
          <internalNodes>
            0 -1 45 -1.6060548368841410e-03</internalNodes>
          <leafValues>
            5.4145401716232300e-01 -4.8860409855842590e-01</leafValues></_>
        <_>
          <internalNodes>
            0 -1 11 1.8095564097166061e-02</internalNodes>
          <leafValues>
            -7.5180661678314209e-01 3.3770591020584106e-01</leafValues></_></weakClassifiers></_>
    <!-- stage 6 -->
    <_>
      <maxWeakCount>5</maxWeakCount>
      <stageThreshold>-3.1467750668525696e-01</stageThreshold>
      <weakClassifiers>
        <_>
          <internalNodes>
            0 -1 6 5.8010853826999664e-03</internalNodes>
          <leafValues>
            -5.3694581985473633e-01 6.5630710124969482e-01</leafValues></_>
        <_>
          <internalNodes>
            0 -1 23 6.3784018158912659e-02</internalNodes>
          <leafValues>
            -4.9752163887023926e-01 6.3659745454788208e-01</leafValues></_>
        <_>
          <internalNodes>
            0 -1 18 -4.0533897845307365e-05</internalNodes>
          <leafValues>
            -9.6609377861022949e-01 2.4761359393596649e-01</leafValues></_>
        <_>
          <internalNodes>
            0 -1 26 1.2527314538601786e-05</internalNodes>
          <leafValues>
            2.8065320849418640e-01 -8.2663846015930176e-01</leafValues></_>
        <_>
          <internalNodes>
            0 -1 20 1.1629726737737656e-02</internalNodes>
          <leafValues>
            -9.3070882558822632e-01 1.9152310490608215e-01</leafValues></_></weakClassifiers></_>
    <!-- stage 7 -->
    <_>
      <maxWeakCount>5</maxWeakCount>
      <stageThreshold>-1.1974006891250610e+00</stageThreshold>
      <weakClassifiers>
        <_>
          <internalNodes>
            0 -1 5 -3.2512177713215351e-03</internalNodes>
          <leafValues>
            6.2757384777069092e-01 -5.2480417490005493e-01</leafValues></_>
        <_>
          <internalNodes>
            0 -1 31 2.3513706400990486e-03</internalNodes>
          <leafValues>
            -5.6993514299392700e-01 5.3262847661972046e-01</leafValues></_>
        <_>
          <internalNodes>
            0 -1 19 1.6279844203381799e-05</internalNodes>
          <leafValues>
            3.6842411756515503e-01 -7.2179120779037476e-01</leafValues></_>
        <_>
          <internalNodes>
            0 -1 24 8.1046922132372856e-03</internalNodes>
          <leafValues>
            -7.9398107528686523e-01 3.1023091077804565e-01</leafValues></_>
        <_>
          <internalNodes>
            0 -1 34 -5.8273067697882652e-03</internalNodes>
          <leafValues>
            2.6073285937309265e-01 -9.3625956773757935e-01</leafValues></_></weakClassifiers></_>
    <!-- stage 8 -->
    <_>
      <maxWeakCount>6</maxWeakCount>
      <stageThreshold>-9.0292537212371826e-01</stageThreshold>
      <weakClassifiers>
        <_>
          <internalNodes>
            0 -1 2 3.3876806264743209e-04</internalNodes>
          <leafValues>
            -7.9431074857711792e-01 5.3598111867904663e-01</leafValues></_>
        <_>
          <internalNodes>
            0 -1 46 -4.6225852565839887e-04</internalNodes>
          <leafValues>
            5.3567832708358765e-01 -4.3974882364273071e-01</leafValues></_>
        <_>
          <internalNodes>
            0 -1 25 7.5205634857411496e-06</internalNodes>
          <leafValues>
            4.2747414112091064e-01 -7.3884582519531250e-01</leafValues></_>
        <_>
          <internalNodes>
            0 -1 42 1.5222541151160840e-05</internalNodes>
          <leafValues>
            1.5966866910457611e-01 -8.9697045087814331e-01</leafValues></_>
        <_>
          <internalNodes>
            0 -1 27 -2.0951190963387489e-02</internalNodes>
          <leafValues>
            3.1526520848274231e-01 -6.1155861616134644e-01</leafValues></_>
        <_>
          <internalNodes>
            0 -1 39 3.7849642103537917e-04</internalNodes>
          <leafValues>
            -7.3524576425552368e-01 2.7885222434997559e-01</leafValues></_></weakClassifiers></_>
    <!-- stage 9 -->
    <_>
      <maxWeakCount>8</maxWeakCount>
      <stageThreshold>-1.2742441892623901e+00</stageThreshold>
      <weakClassifiers>
        <_>
          <internalNodes>
            0 -1 40 -1.2559223250718787e-05</internalNodes>
          <leafValues>
            -5.5648535490036011e-01 6.1279016733169556e-01</leafValues></_>
        <_>
          <internalNodes>
            0 -1 41 4.4874132072436623e-06</internalNodes>
          <leafValues>
            3.3284097909927368e-01 -8.1978493928909302e-01</leafValues></_>
        <_>
          <internalNodes>
            0 -1 1 5.9504579985514283e-04</internalNodes>
          <leafValues>
            -4.9142178893089294e-01 4.7978740930557251e-01</leafValues></_>
        <_>
          <internalNodes>
            0 -1 3 5.7821609079837799e-03</internalNodes>
          <leafValues>
            -4.1990986466407776e-01 5.4375624656677246e-01</leafValues></_>
        <_>
          <internalNodes>
            0 -1 4 -1.1265898123383522e-02</internalNodes>
          <leafValues>
            3.2875847816467285e-01 -5.9901839494705200e-01</leafValues></_>
        <_>
          <internalNodes>
            0 -1 14 6.6693555709207430e-06</internalNodes>
          <leafValues>
            3.4406599402427673e-01 -5.4296630620956421e-01</leafValues></_>
        <_>
          <internalNodes>
            0 -1 43 -1.9426959333941340e-03</internalNodes>
          <leafValues>
            2.6376530528068542e-01 -6.7768085002899170e-01</leafValues></_>
        <_>
          <internalNodes>
            0 -1 44 -3.1637200154364109e-03</internalNodes>
          <leafValues>
            4.0709212422370911e-01 -4.3032434582710266e-01</leafValues></_></weakClassifiers></_></stages>
  <features>
    <_>
      <rects>
        <_>
          0 7 4 58 -1.</_>
        <_>
          2 7 2 58 2.</_></rects>
      <tilted>0</tilted></_>
    <_>
      <rects>
        <_>
          0 8 2 51 -1.</_>
        <_>
          1 8 1 51 2.</_></rects>
      <tilted>0</tilted></_>
    <_>
      <rects>
        <_>
          0 58 42 4 -1.</_>
        <_>
          21 58 21 4 2.</_></rects>
      <tilted>0</tilted></_>
    <_>
      <rects>
        <_>
          6 10 60 1 -1.</_>
        <_>
          26 10 20 1 3.</_></rects>
      <tilted>0</tilted></_>
    <_>
      <rects>
        <_>
          14 62 39 8 -1.</_>
        <_>
          14 66 39 4 2.</_></rects>
      <tilted>0</tilted></_>
    <_>
      <rects>
        <_>
          15 64 43 6 -1.</_>
        <_>
          15 67 43 3 2.</_></rects>
      <tilted>0</tilted></_>
    <_>
      <rects>
        <_>
          16 0 39 8 -1.</_>
        <_>
          16 4 39 4 2.</_></rects>
      <tilted>0</tilted></_>
    <_>
      <rects>
        <_>
          17 60 35 10 -1.</_>
        <_>
          17 65 35 5 2.</_></rects>
      <tilted>0</tilted></_>
    <_>
      <rects>
        <_>
          19 31 34 34 -1.</_>
        <_>
          19 48 34 17 2.</_></rects>
      <tilted>0</tilted></_>
    <_>
      <rects>
        <_>
          20 45 31 24 -1.</_>
        <_>
          20 53 31 8 3.</_></rects>
      <tilted>0</tilted></_>
    <_>
      <rects>
        <_>
          21 0 28 10 -1.</_>
        <_>
          21 5 28 5 2.</_></rects>
      <tilted>0</tilted></_>
    <_>
      <rects>
        <_>
          21 21 6 46 -1.</_>
        <_>
          21 44 6 23 2.</_></rects>
      <tilted>0</tilted></_>
    <_>
      <rects>
        <_>
          21 24 17 42 -1.</_>
        <_>
          21 45 17 21 2.</_></rects>
      <tilted>0</tilted></_>
    <_>
      <rects>
        <_>
          21 46 29 21 -1.</_>
        <_>
          21 53 29 7 3.</_></rects>
      <tilted>0</tilted></_>
    <_>
      <rects>
        <_>
          22 57 14 1 -1.</_>
        <_>
          29 57 7 1 2.</_></rects>
      <tilted>0</tilted></_>
    <_>
      <rects>
        <_>
          25 6 18 18 -1.</_>
        <_>
          25 15 18 9 2.</_></rects>
      <tilted>0</tilted></_>
    <_>
      <rects>
        <_>
          25 28 25 36 -1.</_>
        <_>
          25 46 25 18 2.</_></rects>
      <tilted>0</tilted></_>
    <_>
      <rects>
        <_>
          25 45 20 24 -1.</_>
        <_>
          25 53 20 8 3.</_></rects>
      <tilted>0</tilted></_>
    <_>
      <rects>
        <_>
          25 56 10 3 -1.</_>
        <_>
          30 56 5 3 2.</_></rects>
      <tilted>0</tilted></_>
    <_>
      <rects>
        <_>
          25 57 10 1 -1.</_>
        <_>
          30 57 5 1 2.</_></rects>
      <tilted>0</tilted></_>
    <_>
      <rects>
        <_>
          26 24 5 42 -1.</_>
        <_>
          26 45 5 21 2.</_></rects>
      <tilted>0</tilted></_>
    <_>
      <rects>
        <_>
          27 5 11 22 -1.</_>
        <_>
          27 16 11 11 2.</_></rects>
      <tilted>0</tilted></_>
    <_>
      <rects>
        <_>
          27 46 19 24 -1.</_>
        <_>
          27 54 19 8 3.</_></rects>
      <tilted>0</tilted></_>
    <_>
      <rects>
        <_>
          27 46 21 24 -1.</_>
        <_>
          27 54 21 8 3.</_></rects>
      <tilted>0</tilted></_>
    <_>
      <rects>
        <_>
          27 49 17 15 -1.</_>
        <_>
          27 54 17 5 3.</_></rects>
      <tilted>0</tilted></_>
    <_>
      <rects>
        <_>
          27 56 6 1 -1.</_>
        <_>
          30 56 3 1 2.</_></rects>
      <tilted>0</tilted></_>
    <_>
      <rects>
        <_>
          27 57 8 1 -1.</_>
        <_>
          31 57 4 1 2.</_></rects>
      <tilted>0</tilted></_>
    <_>
      <rects>
        <_>
          28 7 20 14 -1.</_>
        <_>
          28 14 20 7 2.</_></rects>
      <tilted>0</tilted></_>
    <_>
      <rects>
        <_>
          29 56 10 1 -1.</_>
        <_>
          34 56 5 1 2.</_></rects>
      <tilted>0</tilted></_>
    <_>
      <rects>
        <_>
          30 0 9 18 -1.</_>
        <_>
          30 6 9 6 3.</_></rects>
      <tilted>0</tilted></_>
    <_>
      <rects>
        <_>
          30 2 11 15 -1.</_>
        <_>
          30 7 11 5 3.</_></rects>
      <tilted>0</tilted></_>
    <_>
      <rects>
        <_>
          30 5 6 9 -1.</_>
        <_>
          30 8 6 3 3.</_></rects>
      <tilted>0</tilted></_>
    <_>
      <rects>
        <_>
          31 5 9 9 -1.</_>
        <_>
          31 8 9 3 3.</_></rects>
      <tilted>0</tilted></_>
    <_>
      <rects>
        <_>
          31 56 6 1 -1.</_>
        <_>
          34 56 3 1 2.</_></rects>
      <tilted>0</tilted></_>
    <_>
      <rects>
        <_>
          32 5 5 26 -1.</_>
        <_>
          32 18 5 13 2.</_></rects>
      <tilted>0</tilted></_>
    <_>
      <rects>
        <_>
          32 56 8 1 -1.</_>
        <_>
          36 56 4 1 2.</_></rects>
      <tilted>0</tilted></_>
    <_>
      <rects>
        <_>
          32 56 6 4 -1.</_>
        <_>
          32 58 6 2 2.</_></rects>
      <tilted>0</tilted></_>
    <_>
      <rects>
        <_>
          33 55 6 3 -1.</_>
        <_>
          36 55 3 3 2.</_></rects>
      <tilted>0</tilted></_>
    <_>
      <rects>
        <_>
          33 56 2 4 -1.</_>
        <_>
          33 58 2 2 2.</_></rects>
      <tilted>0</tilted></_>
    <_>
      <rects>
        <_>
          34 47 2 15 -1.</_>
        <_>
          34 52 2 5 3.</_></rects>
      <tilted>0</tilted></_>
    <_>
      <rects>
        <_>
          34 58 10 1 -1.</_>
        <_>
          39 58 5 1 2.</_></rects>
      <tilted>0</tilted></_>
    <_>
      <rects>
        <_>
          35 58 8 1 -1.</_>
        <_>
          39 58 4 1 2.</_></rects>
      <tilted>0</tilted></_>
    <_>
      <rects>
        <_>
          37 58 8 2 -1.</_>
        <_>
          41 58 4 2 2.</_></rects>
      <tilted>0</tilted></_>
    <_>
      <rects>
        <_>
          39 4 2 22 -1.</_>
        <_>
          39 15 2 11 2.</_></rects>
      <tilted>0</tilted></_>
    <_>
      <rects>
        <_>
          64 4 6 61 -1.</_>
        <_>
          67 4 3 61 2.</_></rects>
      <tilted>0</tilted></_>
    <_>
      <rects>
        <_>
          66 7 4 50 -1.</_>
        <_>
          68 7 2 50 2.</_></rects>
      <tilted>0</tilted></_>
    <_>
      <rects>
        <_>
          68 7 2 51 -1.</_>
        <_>
          69 7 1 51 2.</_></rects>
      <tilted>0</tilted></_></features></cascade>
</opencv_storage>
