<?xml version="1.0"?>
<opencv_storage>
<stage8>
  <maxWeakCount>6</maxWeakCount>
  <stageThreshold>-9.0292537212371826e-01</stageThreshold>
  <weakClassifiers>
    <_>
      <internalNodes>
        0 -1 320076 3.3876806264743209e-04</internalNodes>
      <leafValues>
        -7.9431074857711792e-01 5.3598111867904663e-01</leafValues></_>
    <_>
      <internalNodes>
        0 -1 11581534 -4.6225852565839887e-04</internalNodes>
      <leafValues>
        5.3567832708358765e-01 -4.3974882364273071e-01</leafValues></_>
    <_>
      <internalNodes>
        0 -1 7399321 7.5205634857411496e-06</internalNodes>
      <leafValues>
        4.2747414112091064e-01 -7.3884582519531250e-01</leafValues></_>
    <_>
      <internalNodes>
        0 -1 9153629 1.5222541151160840e-05</internalNodes>
      <leafValues>
        1.5966866910457611e-01 -8.9697045087814331e-01</leafValues></_>
    <_>
      <internalNodes>
        0 -1 7448573 -2.0951190963387489e-02</internalNodes>
      <leafValues>
        3.1526520848274231e-01 -6.1155861616134644e-01</leafValues></_>
    <_>
      <internalNodes>
        0 -1 8665201 3.7849642103537917e-04</internalNodes>
      <leafValues>
        -7.3524576425552368e-01 2.7885222434997559e-01</leafValues></_></weakClassifiers></stage8>
</opencv_storage>
