<?xml version="1.0"?>
<opencv_storage>
<stage7>
  <maxWeakCount>5</maxWeakCount>
  <stageThreshold>-1.1974006891250610e+00</stageThreshold>
  <weakClassifiers>
    <_>
      <internalNodes>
        0 -1 4683847 -3.2512177713215351e-03</internalNodes>
      <leafValues>
        6.2757384777069092e-01 -5.2480417490005493e-01</leafValues></_>
    <_>
      <internalNodes>
        0 -1 7821953 2.3513706400990486e-03</internalNodes>
      <leafValues>
        -5.6993514299392700e-01 5.3262847661972046e-01</leafValues></_>
    <_>
      <internalNodes>
        0 -1 6994427 1.6279844203381799e-05</internalNodes>
      <leafValues>
        3.6842411756515503e-01 -7.2179120779037476e-01</leafValues></_>
    <_>
      <internalNodes>
        0 -1 7390275 8.1046922132372856e-03</internalNodes>
      <leafValues>
        -7.9398107528686523e-01 3.1023091077804565e-01</leafValues></_>
    <_>
      <internalNodes>
        0 -1 8190045 -5.8273067697882652e-03</internalNodes>
      <leafValues>
        2.6073285937309265e-01 -9.3625956773757935e-01</leafValues></_></weakClassifiers></stage7>
</opencv_storage>
