<?xml version="1.0"?>
<opencv_storage>
<stage5>
  <maxWeakCount>6</maxWeakCount>
  <stageThreshold>-1.0528568029403687e+00</stageThreshold>
  <weakClassifiers>
    <_>
      <internalNodes>
        0 -1 6105926 3.4542053937911987e-02</internalNodes>
      <leafValues>
        -6.6255146265029907e-01 6.5301626920700073e-01</leafValues></_>
    <_>
      <internalNodes>
        0 -1 8506952 -1.2165251064288896e-05</internalNodes>
      <leafValues>
        -8.1791090965270996e-01 4.7203239798545837e-01</leafValues></_>
    <_>
      <internalNodes>
        0 -1 8505988 3.0253842851379886e-05</internalNodes>
      <leafValues>
        2.8952458500862122e-01 -9.3259310722351074e-01</leafValues></_>
    <_>
      <internalNodes>
        0 -1 8335095 -2.1903033484704792e-05</internalNodes>
      <leafValues>
        -9.4062829017639160e-01 1.9552904367446899e-01</leafValues></_>
    <_>
      <internalNodes>
        0 -1 11553377 -1.6060548368841410e-03</internalNodes>
      <leafValues>
        5.4145401716232300e-01 -4.8860409855842590e-01</leafValues></_>
    <_>
      <internalNodes>
        0 -1 6020032 1.8095564097166061e-02</internalNodes>
      <leafValues>
        -7.5180661678314209e-01 3.3770591020584106e-01</leafValues></_></weakClassifiers></stage5>
</opencv_storage>
