<?xml version="1.0"?>
<opencv_storage>
<stage5>
  <maxWeakCount>5</maxWeakCount>
  <stageThreshold>-9.7882694005966187e-01</stageThreshold>
  <weakClassifiers>
    <_>
      <internalNodes>
        0 -1 8688382 7.8860344365239143e-04</internalNodes>
      <leafValues>
        -6.4661651849746704e-01 6.8846505880355835e-01</leafValues></_>
    <_>
      <internalNodes>
        0 -1 7755755 4.8317335313186049e-04</internalNodes>
      <leafValues>
        -4.9704045057296753e-01 6.3998144865036011e-01</leafValues></_>
    <_>
      <internalNodes>
        0 -1 8150538 2.5973509997129440e-02</internalNodes>
      <leafValues>
        -5.5377757549285889e-01 6.2448632717132568e-01</leafValues></_>
    <_>
      <internalNodes>
        0 -1 7284491 2.2736965547665022e-05</internalNodes>
      <leafValues>
        3.3816713094711304e-01 -9.3191671371459961e-01</leafValues></_>
    <_>
      <internalNodes>
        0 -1 7279991 -3.2153518986888230e-05</internalNodes>
      <leafValues>
        -9.4190704822540283e-01 3.1544277071952820e-01</leafValues></_></weakClassifiers></stage5>
</opencv_storage>
