<?xml version="1.0"?>
<opencv_storage>
<stage8>
  <maxWeakCount>5</maxWeakCount>
  <stageThreshold>-3.4607321023941040e-01</stageThreshold>
  <weakClassifiers>
    <_>
      <internalNodes>
        0 -1 7393236 1.1116456240415573e-02</internalNodes>
      <leafValues>
        -5.9845560789108276e-01 6.5901935100555420e-01</leafValues></_>
    <_>
      <internalNodes>
        0 -1 7941439 1.3822189066559076e-03</internalNodes>
      <leafValues>
        -5.6674379110336304e-01 5.7752537727355957e-01</leafValues></_>
    <_>
      <internalNodes>
        0 -1 8563341 -2.0280973330955021e-05</internalNodes>
      <leafValues>
        -8.6958330869674683e-01 3.2488495111465454e-01</leafValues></_>
    <_>
      <internalNodes>
        0 -1 8730256 1.1639861440926325e-05</internalNodes>
      <leafValues>
        2.6645678281784058e-01 -9.2585110664367676e-01</leafValues></_>
    <_>
      <internalNodes>
        0 -1 5918230 1.8640588968992233e-02</internalNodes>
      <leafValues>
        -7.0971238613128662e-01 2.7798354625701904e-01</leafValues></_></weakClassifiers></stage8>
</opencv_storage>
