<?xml version="1.0"?>
<opencv_storage>
<cascade>
  <stageType>BOOST</stageType>
  <featureType>HAAR</featureType>
  <height>70</height>
  <width>70</width>
  <stageParams>
    <boostType>GAB</boostType>
    <minHitRate>9.9500000476837158e-01</minHitRate>
    <maxFalseAlarm>5.0000000000000000e-01</maxFalseAlarm>
    <weightTrimRate>9.4999999999999996e-01</weightTrimRate>
    <maxDepth>1</maxDepth>
    <maxWeakCount>100</maxWeakCount></stageParams>
  <featureParams>
    <maxCatCount>0</maxCatCount>
    <featSize>1</featSize>
    <mode>BASIC</mode></featureParams>
  <stageNum>9</stageNum>
  <stages>
    <!-- stage 0 -->
    <_>
      <maxWeakCount>2</maxWeakCount>
      <stageThreshold>-2.4934081360697746e-02</stageThreshold>
      <weakClassifiers>
        <_>
          <internalNodes>
            0 -1 12 4.7362148761749268e-02</internalNodes>
          <leafValues>
            -8.9785498380661011e-01 9.2973774671554565e-01</leafValues></_>
        <_>
          <internalNodes>
            0 -1 8 3.7760984152555466e-02</internalNodes>
          <leafValues>
            -8.3504867553710938e-01 8.7292087078094482e-01</leafValues></_></weakClassifiers></_>
    <!-- stage 1 -->
    <_>
      <maxWeakCount>4</maxWeakCount>
      <stageThreshold>-4.5868968963623047e-01</stageThreshold>
      <weakClassifiers>
        <_>
          <internalNodes>
            0 -1 18 1.7552610486745834e-02</internalNodes>
          <leafValues>
            -8.5559564828872681e-01 7.8884279727935791e-01</leafValues></_>
        <_>
          <internalNodes>
            0 -1 17 1.7107609659433365e-02</internalNodes>
          <leafValues>
            -7.5345528125762939e-01 6.7736083269119263e-01</leafValues></_>
        <_>
          <internalNodes>
            0 -1 7 6.8798229098320007e-02</internalNodes>
          <leafValues>
            -7.3288416862487793e-01 6.1456936597824097e-01</leafValues></_>
        <_>
          <internalNodes>
            0 -1 15 -1.1699300259351730e-02</internalNodes>
          <leafValues>
            5.3579193353652954e-01 -8.1666749715805054e-01</leafValues></_></weakClassifiers></_>
    <!-- stage 2 -->
    <_>
      <maxWeakCount>5</maxWeakCount>
      <stageThreshold>-1.0870513916015625e+00</stageThreshold>
      <weakClassifiers>
        <_>
          <internalNodes>
            0 -1 4 -1.2698130682110786e-02</internalNodes>
          <leafValues>
            7.4679940938949585e-01 -6.4534229040145874e-01</leafValues></_>
        <_>
          <internalNodes>
            0 -1 13 -1.7678889632225037e-01</internalNodes>
          <leafValues>
            7.4748045206069946e-01 -5.2591669559478760e-01</leafValues></_>
        <_>
          <internalNodes>
            0 -1 3 7.2452165186405182e-03</internalNodes>
          <leafValues>
            -6.3114225864410400e-01 5.8028113842010498e-01</leafValues></_>
        <_>
          <internalNodes>
            0 -1 23 1.1580264981603250e-05</internalNodes>
          <leafValues>
            3.5584792494773865e-01 -8.9949017763137817e-01</leafValues></_>
        <_>
          <internalNodes>
            0 -1 27 -8.0984264059225097e-06</internalNodes>
          <leafValues>
            -9.2853140830993652e-01 3.5950195789337158e-01</leafValues></_></weakClassifiers></_>
    <!-- stage 3 -->
    <_>
      <maxWeakCount>3</maxWeakCount>
      <stageThreshold>2.5340479612350464e-01</stageThreshold>
      <weakClassifiers>
        <_>
          <internalNodes>
            0 -1 0 1.4113503275439143e-03</internalNodes>
          <leafValues>
            -4.5690453052520752e-01 7.7719938755035400e-01</leafValues></_>
        <_>
          <internalNodes>
            0 -1 19 2.5463554266025312e-05</internalNodes>
          <leafValues>
            4.4263851642608643e-01 -9.3633323907852173e-01</leafValues></_>
        <_>
          <internalNodes>
            0 -1 19 -1.6014155335142277e-05</internalNodes>
          <leafValues>
            -9.6643310785293579e-01 4.5994377136230469e-01</leafValues></_></weakClassifiers></_>
    <!-- stage 4 -->
    <_>
      <maxWeakCount>3</maxWeakCount>
      <stageThreshold>1.3183498382568359e-01</stageThreshold>
      <weakClassifiers>
        <_>
          <internalNodes>
            0 -1 22 1.6619971022009850e-02</internalNodes>
          <leafValues>
            -8.0624997615814209e-01 6.4237290620803833e-01</leafValues></_>
        <_>
          <internalNodes>
            0 -1 16 3.1740382313728333e-02</internalNodes>
          <leafValues>
            -7.5832116603851318e-01 6.1128151416778564e-01</leafValues></_>
        <_>
          <internalNodes>
            0 -1 26 -1.6140245861606672e-05</internalNodes>
          <leafValues>
            -9.3217504024505615e-01 3.2680347561836243e-01</leafValues></_></weakClassifiers></_>
    <!-- stage 5 -->
    <_>
      <maxWeakCount>4</maxWeakCount>
      <stageThreshold>-3.6116623878479004e-01</stageThreshold>
      <weakClassifiers>
        <_>
          <internalNodes>
            0 -1 30 1.3048969776718877e-05</internalNodes>
          <leafValues>
            7.4671667814254761e-01 -6.8202763795852661e-01</leafValues></_>
        <_>
          <internalNodes>
            0 -1 1 1.7338126897811890e-02</internalNodes>
          <leafValues>
            -5.8354336023330688e-01 6.1378073692321777e-01</leafValues></_>
        <_>
          <internalNodes>
            0 -1 10 8.1269308924674988e-02</internalNodes>
          <leafValues>
            -6.6121679544448853e-01 5.1643830537796021e-01</leafValues></_>
        <_>
          <internalNodes>
            0 -1 9 -5.3704334422945976e-03</internalNodes>
          <leafValues>
            3.8796645402908325e-01 -9.0124064683914185e-01</leafValues></_></weakClassifiers></_>
    <!-- stage 6 -->
    <_>
      <maxWeakCount>4</maxWeakCount>
      <stageThreshold>-5.4016607999801636e-01</stageThreshold>
      <weakClassifiers>
        <_>
          <internalNodes>
            0 -1 11 1.4233039692044258e-02</internalNodes>
          <leafValues>
            -8.4719866514205933e-01 6.2173372507095337e-01</leafValues></_>
        <_>
          <internalNodes>
            0 -1 2 1.6645381692796946e-03</internalNodes>
          <leafValues>
            -6.6869306564331055e-01 5.1910501718521118e-01</leafValues></_>
        <_>
          <internalNodes>
            0 -1 29 2.6909066364169121e-03</internalNodes>
          <leafValues>
            -9.1563528776168823e-01 3.7758964300155640e-01</leafValues></_>
        <_>
          <internalNodes>
            0 -1 31 -2.4777534417808056e-03</internalNodes>
          <leafValues>
            5.9813600778579712e-01 -5.5447435379028320e-01</leafValues></_></weakClassifiers></_>
    <!-- stage 7 -->
    <_>
      <maxWeakCount>4</maxWeakCount>
      <stageThreshold>-7.1740001440048218e-01</stageThreshold>
      <weakClassifiers>
        <_>
          <internalNodes>
            0 -1 28 -9.9294866231502965e-06</internalNodes>
          <leafValues>
            -8.8888889551162720e-01 5.9079903364181519e-01</leafValues></_>
        <_>
          <internalNodes>
            0 -1 21 7.0421056079794653e-06</internalNodes>
          <leafValues>
            3.9145690202713013e-01 -9.1312736272811890e-01</leafValues></_>
        <_>
          <internalNodes>
            0 -1 5 -4.2252484709024429e-03</internalNodes>
          <leafValues>
            4.2534688115119934e-01 -6.9749826192855835e-01</leafValues></_>
        <_>
          <internalNodes>
            0 -1 25 7.6672704381053336e-06</internalNodes>
          <leafValues>
            3.1077730655670166e-01 -8.2041859626770020e-01</leafValues></_></weakClassifiers></_>
    <!-- stage 8 -->
    <_>
      <maxWeakCount>5</maxWeakCount>
      <stageThreshold>-1.0070728063583374e+00</stageThreshold>
      <weakClassifiers>
        <_>
          <internalNodes>
            0 -1 28 9.4596907729282975e-06</internalNodes>
          <leafValues>
            5.8496600389480591e-01 -9.2785573005676270e-01</leafValues></_>
        <_>
          <internalNodes>
            0 -1 20 1.7888792790472507e-03</internalNodes>
          <leafValues>
            -4.6361333131790161e-01 6.3539254665374756e-01</leafValues></_>
        <_>
          <internalNodes>
            0 -1 24 -1.4954433936509304e-05</internalNodes>
          <leafValues>
            -8.1595885753631592e-01 4.1002801060676575e-01</leafValues></_>
        <_>
          <internalNodes>
            0 -1 14 1.4952526427805424e-02</internalNodes>
          <leafValues>
            -8.1747996807098389e-01 2.6169207692146301e-01</leafValues></_>
        <_>
          <internalNodes>
            0 -1 6 5.6339669972658157e-03</internalNodes>
          <leafValues>
            -7.2097361087799072e-01 3.2491192221641541e-01</leafValues></_></weakClassifiers></_></stages>
  <features>
    <_>
      <rects>
        <_>
          0 11 4 48 -1.</_>
        <_>
          2 11 2 48 2.</_></rects>
      <tilted>0</tilted></_>
    <_>
      <rects>
        <_>
          13 0 44 10 -1.</_>
        <_>
          13 5 44 5 2.</_></rects>
      <tilted>0</tilted></_>
    <_>
      <rects>
        <_>
          13 11 10 20 -1.</_>
        <_>
          18 11 5 20 2.</_></rects>
      <tilted>0</tilted></_>
    <_>
      <rects>
        <_>
          14 0 45 8 -1.</_>
        <_>
          14 4 45 4 2.</_></rects>
      <tilted>0</tilted></_>
    <_>
      <rects>
        <_>
          16 60 42 10 -1.</_>
        <_>
          16 65 42 5 2.</_></rects>
      <tilted>0</tilted></_>
    <_>
      <rects>
        <_>
          16 64 38 6 -1.</_>
        <_>
          16 67 38 3 2.</_></rects>
      <tilted>0</tilted></_>
    <_>
      <rects>
        <_>
          20 0 30 8 -1.</_>
        <_>
          20 4 30 4 2.</_></rects>
      <tilted>0</tilted></_>
    <_>
      <rects>
        <_>
          20 43 27 27 -1.</_>
        <_>
          20 52 27 9 3.</_></rects>
      <tilted>0</tilted></_>
    <_>
      <rects>
        <_>
          22 0 27 27 -1.</_>
        <_>
          22 9 27 9 3.</_></rects>
      <tilted>0</tilted></_>
    <_>
      <rects>
        <_>
          22 15 24 10 -1.</_>
        <_>
          22 20 24 5 2.</_></rects>
      <tilted>0</tilted></_>
    <_>
      <rects>
        <_>
          22 43 25 27 -1.</_>
        <_>
          22 52 25 9 3.</_></rects>
      <tilted>0</tilted></_>
    <_>
      <rects>
        <_>
          23 43 23 12 -1.</_>
        <_>
          23 49 23 6 2.</_></rects>
      <tilted>0</tilted></_>
    <_>
      <rects>
        <_>
          23 43 24 27 -1.</_>
        <_>
          23 52 24 9 3.</_></rects>
      <tilted>0</tilted></_>
    <_>
      <rects>
        <_>
          24 7 26 57 -1.</_>
        <_>
          24 26 26 19 3.</_></rects>
      <tilted>0</tilted></_>
    <_>
      <rects>
        <_>
          25 45 10 21 -1.</_>
        <_>
          25 52 10 7 3.</_></rects>
      <tilted>0</tilted></_>
    <_>
      <rects>
        <_>
          26 9 11 20 -1.</_>
        <_>
          26 19 11 10 2.</_></rects>
      <tilted>0</tilted></_>
    <_>
      <rects>
        <_>
          28 0 16 24 -1.</_>
        <_>
          28 8 16 8 3.</_></rects>
      <tilted>0</tilted></_>
    <_>
      <rects>
        <_>
          28 3 18 18 -1.</_>
        <_>
          28 9 18 6 3.</_></rects>
      <tilted>0</tilted></_>
    <_>
      <rects>
        <_>
          28 41 15 16 -1.</_>
        <_>
          28 49 15 8 2.</_></rects>
      <tilted>0</tilted></_>
    <_>
      <rects>
        <_>
          28 55 12 1 -1.</_>
        <_>
          34 55 6 1 2.</_></rects>
      <tilted>0</tilted></_>
    <_>
      <rects>
        <_>
          30 31 18 5 -1.</_>
        <_>
          36 31 6 5 3.</_></rects>
      <tilted>0</tilted></_>
    <_>
      <rects>
        <_>
          30 56 6 2 -1.</_>
        <_>
          30 57 6 1 2.</_></rects>
      <tilted>0</tilted></_>
    <_>
      <rects>
        <_>
          31 45 12 21 -1.</_>
        <_>
          31 52 12 7 3.</_></rects>
      <tilted>0</tilted></_>
    <_>
      <rects>
        <_>
          31 55 4 3 -1.</_>
        <_>
          31 56 4 1 3.</_></rects>
      <tilted>0</tilted></_>
    <_>
      <rects>
        <_>
          31 55 5 4 -1.</_>
        <_>
          31 57 5 2 2.</_></rects>
      <tilted>0</tilted></_>
    <_>
      <rects>
        <_>
          32 11 4 2 -1.</_>
        <_>
          32 12 4 1 2.</_></rects>
      <tilted>0</tilted></_>
    <_>
      <rects>
        <_>
          32 11 9 2 -1.</_>
        <_>
          32 12 9 1 2.</_></rects>
      <tilted>0</tilted></_>
    <_>
      <rects>
        <_>
          32 55 3 3 -1.</_>
        <_>
          32 56 3 1 3.</_></rects>
      <tilted>0</tilted></_>
    <_>
      <rects>
        <_>
          32 56 4 2 -1.</_>
        <_>
          32 57 4 1 2.</_></rects>
      <tilted>0</tilted></_>
    <_>
      <rects>
        <_>
          33 4 4 18 -1.</_>
        <_>
          33 10 4 6 3.</_></rects>
      <tilted>0</tilted></_>
    <_>
      <rects>
        <_>
          33 11 8 2 -1.</_>
        <_>
          33 12 8 1 2.</_></rects>
      <tilted>0</tilted></_>
    <_>
      <rects>
        <_>
          66 16 4 39 -1.</_>
        <_>
          68 16 2 39 2.</_></rects>
      <tilted>0</tilted></_></features></cascade>
</opencv_storage>
