<?xml version="1.0"?>
<opencv_storage>
<cascade>
  <stageType>BOOST</stageType>
  <featureType>HAAR</featureType>
  <height>70</height>
  <width>70</width>
  <stageParams>
    <boostType>GAB</boostType>
    <minHitRate>9.9500000476837158e-01</minHitRate>
    <maxFalseAlarm>5.0000000000000000e-01</maxFalseAlarm>
    <weightTrimRate>9.4999999999999996e-01</weightTrimRate>
    <maxDepth>1</maxDepth>
    <maxWeakCount>100</maxWeakCount></stageParams>
  <featureParams>
    <maxCatCount>0</maxCatCount>
    <featSize>1</featSize>
    <mode>BASIC</mode></featureParams>
  <stageNum>11</stageNum>
  <stages>
    <!-- stage 0 -->
    <_>
      <maxWeakCount>3</maxWeakCount>
      <stageThreshold>-7.7960938215255737e-01</stageThreshold>
      <weakClassifiers>
        <_>
          <internalNodes>
            0 -1 5 1.4863612130284309e-02</internalNodes>
          <leafValues>
            -6.5471696853637695e-01 8.7319588661193848e-01</leafValues></_>
        <_>
          <internalNodes>
            0 -1 59 1.5653502196073532e-02</internalNodes>
          <leafValues>
            -6.7514348030090332e-01 8.3091592788696289e-01</leafValues></_>
        <_>
          <internalNodes>
            0 -1 8 -1.6834281384944916e-02</internalNodes>
          <leafValues>
            5.5025106668472290e-01 -7.7866929769515991e-01</leafValues></_></weakClassifiers></_>
    <!-- stage 1 -->
    <_>
      <maxWeakCount>5</maxWeakCount>
      <stageThreshold>-1.8093119859695435e+00</stageThreshold>
      <weakClassifiers>
        <_>
          <internalNodes>
            0 -1 77 -5.1292427815496922e-03</internalNodes>
          <leafValues>
            7.9830253124237061e-01 -6.0080242156982422e-01</leafValues></_>
        <_>
          <internalNodes>
            0 -1 10 6.8462472409009933e-03</internalNodes>
          <leafValues>
            -6.0897505283355713e-01 7.5836300849914551e-01</leafValues></_>
        <_>
          <internalNodes>
            0 -1 13 -2.8948463499546051e-02</internalNodes>
          <leafValues>
            4.5056185126304626e-01 -7.7152454853057861e-01</leafValues></_>
        <_>
          <internalNodes>
            0 -1 60 7.5545134022831917e-03</internalNodes>
          <leafValues>
            -6.5158098936080933e-01 5.1531404256820679e-01</leafValues></_>
        <_>
          <internalNodes>
            0 -1 2 4.2924233712255955e-03</internalNodes>
          <leafValues>
            -5.4376715421676636e-01 5.8091831207275391e-01</leafValues></_></weakClassifiers></_>
    <!-- stage 2 -->
    <_>
      <maxWeakCount>7</maxWeakCount>
      <stageThreshold>-8.9464086294174194e-01</stageThreshold>
      <weakClassifiers>
        <_>
          <internalNodes>
            0 -1 72 1.8549502128735185e-03</internalNodes>
          <leafValues>
            -4.9473685026168823e-01 7.7595907449722290e-01</leafValues></_>
        <_>
          <internalNodes>
            0 -1 7 2.6954086497426033e-02</internalNodes>
          <leafValues>
            -4.5099940896034241e-01 7.8252029418945312e-01</leafValues></_>
        <_>
          <internalNodes>
            0 -1 61 1.5129767358303070e-02</internalNodes>
          <leafValues>
            -4.0932568907737732e-01 6.1113840341567993e-01</leafValues></_>
        <_>
          <internalNodes>
            0 -1 17 -4.4842497445642948e-03</internalNodes>
          <leafValues>
            3.3243197202682495e-01 -7.8087145090103149e-01</leafValues></_>
        <_>
          <internalNodes>
            0 -1 48 4.2712101712822914e-03</internalNodes>
          <leafValues>
            -5.0512975454330444e-01 4.6422553062438965e-01</leafValues></_>
        <_>
          <internalNodes>
            0 -1 3 6.2242848798632622e-03</internalNodes>
          <leafValues>
            -5.6662243604660034e-01 3.5995846986770630e-01</leafValues></_>
        <_>
          <internalNodes>
            0 -1 50 2.2847559303045273e-03</internalNodes>
          <leafValues>
            -6.3595485687255859e-01 3.2322537899017334e-01</leafValues></_></weakClassifiers></_>
    <!-- stage 3 -->
    <_>
      <maxWeakCount>7</maxWeakCount>
      <stageThreshold>-7.7832913398742676e-01</stageThreshold>
      <weakClassifiers>
        <_>
          <internalNodes>
            0 -1 19 1.5537797007709742e-03</internalNodes>
          <leafValues>
            -5.9800249338150024e-01 6.7257845401763916e-01</leafValues></_>
        <_>
          <internalNodes>
            0 -1 64 2.3551119491457939e-02</internalNodes>
          <leafValues>
            -4.1382512450218201e-01 7.9335421323776245e-01</leafValues></_>
        <_>
          <internalNodes>
            0 -1 32 4.4745630584657192e-03</internalNodes>
          <leafValues>
            -3.2719939947128296e-01 6.5974426269531250e-01</leafValues></_>
        <_>
          <internalNodes>
            0 -1 73 1.5589931979775429e-02</internalNodes>
          <leafValues>
            -2.8623262047767639e-01 7.0184862613677979e-01</leafValues></_>
        <_>
          <internalNodes>
            0 -1 29 -8.9598870545160025e-06</internalNodes>
          <leafValues>
            -7.8582233190536499e-01 2.7592924237251282e-01</leafValues></_>
        <_>
          <internalNodes>
            0 -1 31 1.0137393473996781e-05</internalNodes>
          <leafValues>
            3.2821694016456604e-01 -6.6173225641250610e-01</leafValues></_>
        <_>
          <internalNodes>
            0 -1 82 1.2074237929482479e-05</internalNodes>
          <leafValues>
            2.4578987061977386e-01 -7.8833615779876709e-01</leafValues></_></weakClassifiers></_>
    <!-- stage 4 -->
    <_>
      <maxWeakCount>8</maxWeakCount>
      <stageThreshold>-1.2277836799621582e+00</stageThreshold>
      <weakClassifiers>
        <_>
          <internalNodes>
            0 -1 83 -5.0253109075129032e-03</internalNodes>
          <leafValues>
            6.6445499658584595e-01 -4.5168539881706238e-01</leafValues></_>
        <_>
          <internalNodes>
            0 -1 6 3.2649014145135880e-02</internalNodes>
          <leafValues>
            -3.6214700341224670e-01 7.2232043743133545e-01</leafValues></_>
        <_>
          <internalNodes>
            0 -1 9 -2.5800880976021290e-03</internalNodes>
          <leafValues>
            3.2072404026985168e-01 -7.4225121736526489e-01</leafValues></_>
        <_>
          <internalNodes>
            0 -1 23 -1.5833445359021425e-03</internalNodes>
          <leafValues>
            4.7026184201240540e-01 -4.3390133976936340e-01</leafValues></_>
        <_>
          <internalNodes>
            0 -1 36 -8.9039676822721958e-06</internalNodes>
          <leafValues>
            -6.8469166755676270e-01 3.0945456027984619e-01</leafValues></_>
        <_>
          <internalNodes>
            0 -1 36 8.0372665252070874e-06</internalNodes>
          <leafValues>
            3.0067151784896851e-01 -7.5364357233047485e-01</leafValues></_>
        <_>
          <internalNodes>
            0 -1 67 3.6568108480423689e-03</internalNodes>
          <leafValues>
            -5.3378492593765259e-01 3.9363092184066772e-01</leafValues></_>
        <_>
          <internalNodes>
            0 -1 52 2.8315782546997070e-03</internalNodes>
          <leafValues>
            -3.6354985833168030e-01 5.6273066997528076e-01</leafValues></_></weakClassifiers></_>
    <!-- stage 5 -->
    <_>
      <maxWeakCount>8</maxWeakCount>
      <stageThreshold>-1.1472928524017334e+00</stageThreshold>
      <weakClassifiers>
        <_>
          <internalNodes>
            0 -1 34 -1.9814295228570700e-05</internalNodes>
          <leafValues>
            -6.0876899957656860e-01 5.6543415784835815e-01</leafValues></_>
        <_>
          <internalNodes>
            0 -1 35 5.9061276260763407e-06</internalNodes>
          <leafValues>
            3.6187377572059631e-01 -6.8498635292053223e-01</leafValues></_>
        <_>
          <internalNodes>
            0 -1 62 1.9289849326014519e-02</internalNodes>
          <leafValues>
            -4.8676830530166626e-01 4.6378138661384583e-01</leafValues></_>
        <_>
          <internalNodes>
            0 -1 1 8.4808645769953728e-03</internalNodes>
          <leafValues>
            -5.5100488662719727e-01 5.0853139162063599e-01</leafValues></_>
        <_>
          <internalNodes>
            0 -1 49 -5.3341342136263847e-03</internalNodes>
          <leafValues>
            3.9610335230827332e-01 -4.6505454182624817e-01</leafValues></_>
        <_>
          <internalNodes>
            0 -1 25 3.1517394818365574e-03</internalNodes>
          <leafValues>
            -4.6695426106452942e-01 3.7469068169593811e-01</leafValues></_>
        <_>
          <internalNodes>
            0 -1 79 -1.2659269486903213e-05</internalNodes>
          <leafValues>
            -7.6013863086700439e-01 2.7210381627082825e-01</leafValues></_>
        <_>
          <internalNodes>
            0 -1 63 -5.7302145287394524e-03</internalNodes>
          <leafValues>
            5.5706447362899780e-01 -3.7692254781723022e-01</leafValues></_></weakClassifiers></_>
    <!-- stage 6 -->
    <_>
      <maxWeakCount>10</maxWeakCount>
      <stageThreshold>-9.3899577856063843e-01</stageThreshold>
      <weakClassifiers>
        <_>
          <internalNodes>
            0 -1 58 1.6247268766164780e-02</internalNodes>
          <leafValues>
            -5.4728680849075317e-01 5.7452231645584106e-01</leafValues></_>
        <_>
          <internalNodes>
            0 -1 47 4.9477824941277504e-03</internalNodes>
          <leafValues>
            -3.7529000639915466e-01 5.7041573524475098e-01</leafValues></_>
        <_>
          <internalNodes>
            0 -1 28 -1.0324114002287388e-02</internalNodes>
          <leafValues>
            3.4998273849487305e-01 -6.1929398775100708e-01</leafValues></_>
        <_>
          <internalNodes>
            0 -1 35 -1.2622587746591307e-05</internalNodes>
          <leafValues>
            -7.3134529590606689e-01 2.1505907177925110e-01</leafValues></_>
        <_>
          <internalNodes>
            0 -1 33 -1.7148606275441125e-05</internalNodes>
          <leafValues>
            -7.4301242828369141e-01 1.9755329191684723e-01</leafValues></_>
        <_>
          <internalNodes>
            0 -1 70 5.6172600015997887e-03</internalNodes>
          <leafValues>
            -4.6709904074668884e-01 3.5840064287185669e-01</leafValues></_>
        <_>
          <internalNodes>
            0 -1 57 -1.7624106840230525e-04</internalNodes>
          <leafValues>
            6.7092406749725342e-01 -2.3202969133853912e-01</leafValues></_>
        <_>
          <internalNodes>
            0 -1 80 9.0996154540334828e-06</internalNodes>
          <leafValues>
            2.9215282201766968e-01 -4.9484860897064209e-01</leafValues></_>
        <_>
          <internalNodes>
            0 -1 20 -2.4594715796411037e-03</internalNodes>
          <leafValues>
            3.4321159124374390e-01 -4.1212624311447144e-01</leafValues></_>
        <_>
          <internalNodes>
            0 -1 16 -1.0232846252620220e-02</internalNodes>
          <leafValues>
            2.4888697266578674e-01 -5.7657003402709961e-01</leafValues></_></weakClassifiers></_>
    <!-- stage 7 -->
    <_>
      <maxWeakCount>10</maxWeakCount>
      <stageThreshold>-8.3626288175582886e-01</stageThreshold>
      <weakClassifiers>
        <_>
          <internalNodes>
            0 -1 15 8.8155851699411869e-04</internalNodes>
          <leafValues>
            -4.3767312169075012e-01 5.7769972085952759e-01</leafValues></_>
        <_>
          <internalNodes>
            0 -1 84 -2.9643962625414133e-03</internalNodes>
          <leafValues>
            4.6187859773635864e-01 -4.7572430968284607e-01</leafValues></_>
        <_>
          <internalNodes>
            0 -1 42 -1.1086047379649244e-05</internalNodes>
          <leafValues>
            -6.5673351287841797e-01 2.7532997727394104e-01</leafValues></_>
        <_>
          <internalNodes>
            0 -1 24 -4.0925377979874611e-03</internalNodes>
          <leafValues>
            7.1868580579757690e-01 -2.6126119494438171e-01</leafValues></_>
        <_>
          <internalNodes>
            0 -1 65 -2.7672363445162773e-02</internalNodes>
          <leafValues>
            6.9611507654190063e-01 -2.5223845243453979e-01</leafValues></_>
        <_>
          <internalNodes>
            0 -1 45 1.2289106962271035e-05</internalNodes>
          <leafValues>
            3.0220922827720642e-01 -5.9135508537292480e-01</leafValues></_>
        <_>
          <internalNodes>
            0 -1 53 -5.5340898688882589e-04</internalNodes>
          <leafValues>
            5.6714648008346558e-01 -3.0911061167716980e-01</leafValues></_>
        <_>
          <internalNodes>
            0 -1 44 -7.7292224887060001e-06</internalNodes>
          <leafValues>
            -5.7705432176589966e-01 3.4230676293373108e-01</leafValues></_>
        <_>
          <internalNodes>
            0 -1 68 8.2857040688395500e-03</internalNodes>
          <leafValues>
            -3.2723557949066162e-01 5.6289857625961304e-01</leafValues></_>
        <_>
          <internalNodes>
            0 -1 74 -1.1218767212994862e-05</internalNodes>
          <leafValues>
            -7.0480829477310181e-01 2.7923086285591125e-01</leafValues></_></weakClassifiers></_>
    <!-- stage 8 -->
    <_>
      <maxWeakCount>9</maxWeakCount>
      <stageThreshold>-7.6071059703826904e-01</stageThreshold>
      <weakClassifiers>
        <_>
          <internalNodes>
            0 -1 75 -1.2069762306055054e-05</internalNodes>
          <leafValues>
            -4.6880000829696655e-01 5.4442107677459717e-01</leafValues></_>
        <_>
          <internalNodes>
            0 -1 75 1.7273156117880717e-05</internalNodes>
          <leafValues>
            3.2310789823532104e-01 -6.7912143468856812e-01</leafValues></_>
        <_>
          <internalNodes>
            0 -1 46 2.4077789857983589e-03</internalNodes>
          <leafValues>
            -3.9446932077407837e-01 4.3124055862426758e-01</leafValues></_>
        <_>
          <internalNodes>
            0 -1 41 1.1071802873630077e-05</internalNodes>
          <leafValues>
            2.2744525969028473e-01 -7.5344532728195190e-01</leafValues></_>
        <_>
          <internalNodes>
            0 -1 14 1.4510020613670349e-02</internalNodes>
          <leafValues>
            -3.5538911819458008e-01 4.9783822894096375e-01</leafValues></_>
        <_>
          <internalNodes>
            0 -1 71 1.7050635069608688e-02</internalNodes>
          <leafValues>
            -3.2379537820816040e-01 5.5327624082565308e-01</leafValues></_>
        <_>
          <internalNodes>
            0 -1 66 1.7634797841310501e-02</internalNodes>
          <leafValues>
            -2.2108928859233856e-01 6.7293345928192139e-01</leafValues></_>
        <_>
          <internalNodes>
            0 -1 11 -5.3665287792682648e-02</internalNodes>
          <leafValues>
            2.6629602909088135e-01 -6.4447754621505737e-01</leafValues></_>
        <_>
          <internalNodes>
            0 -1 26 8.9794793893815950e-06</internalNodes>
          <leafValues>
            2.4352955818176270e-01 -5.3548926115036011e-01</leafValues></_></weakClassifiers></_>
    <!-- stage 9 -->
    <_>
      <maxWeakCount>9</maxWeakCount>
      <stageThreshold>-1.0867030620574951e+00</stageThreshold>
      <weakClassifiers>
        <_>
          <internalNodes>
            0 -1 76 3.5071105230599642e-05</internalNodes>
          <leafValues>
            -6.1987042427062988e-01 5.0729209184646606e-01</leafValues></_>
        <_>
          <internalNodes>
            0 -1 4 2.7138674631714821e-03</internalNodes>
          <leafValues>
            -6.9614177942276001e-01 2.7636575698852539e-01</leafValues></_>
        <_>
          <internalNodes>
            0 -1 39 -1.0756289157143328e-05</internalNodes>
          <leafValues>
            -6.2661892175674438e-01 2.7322095632553101e-01</leafValues></_>
        <_>
          <internalNodes>
            0 -1 69 1.8274663016200066e-03</internalNodes>
          <leafValues>
            -4.5195487141609192e-01 3.5461261868476868e-01</leafValues></_>
        <_>
          <internalNodes>
            0 -1 51 3.6413967609405518e-03</internalNodes>
          <leafValues>
            -4.5598798990249634e-01 3.1178066134452820e-01</leafValues></_>
        <_>
          <internalNodes>
            0 -1 22 -3.6779819056391716e-03</internalNodes>
          <leafValues>
            4.3238046765327454e-01 -3.3602803945541382e-01</leafValues></_>
        <_>
          <internalNodes>
            0 -1 43 -1.0210854270553682e-05</internalNodes>
          <leafValues>
            -7.6053953170776367e-01 2.0493698120117188e-01</leafValues></_>
        <_>
          <internalNodes>
            0 -1 55 5.2073941333219409e-04</internalNodes>
          <leafValues>
            -2.5158253312110901e-01 6.4287948608398438e-01</leafValues></_>
        <_>
          <internalNodes>
            0 -1 37 1.1775775419664569e-05</internalNodes>
          <leafValues>
            2.0845574140548706e-01 -7.2089415788650513e-01</leafValues></_></weakClassifiers></_>
    <!-- stage 10 -->
    <_>
      <maxWeakCount>12</maxWeakCount>
      <stageThreshold>-9.7486513853073120e-01</stageThreshold>
      <weakClassifiers>
        <_>
          <internalNodes>
            0 -1 78 -3.1847050413489342e-03</internalNodes>
          <leafValues>
            5.1028639078140259e-01 -5.0863724946975708e-01</leafValues></_>
        <_>
          <internalNodes>
            0 -1 18 8.4694125689566135e-04</internalNodes>
          <leafValues>
            -6.6778808832168579e-01 2.7970078587532043e-01</leafValues></_>
        <_>
          <internalNodes>
            0 -1 27 -1.4962970744818449e-03</internalNodes>
          <leafValues>
            3.9470976591110229e-01 -4.0657645463943481e-01</leafValues></_>
        <_>
          <internalNodes>
            0 -1 38 -1.2642907677218318e-05</internalNodes>
          <leafValues>
            -6.8926733732223511e-01 2.2685810923576355e-01</leafValues></_>
        <_>
          <internalNodes>
            0 -1 54 2.8626909479498863e-03</internalNodes>
          <leafValues>
            -2.9199889302253723e-01 5.7459342479705811e-01</leafValues></_>
        <_>
          <internalNodes>
            0 -1 81 -1.5048362911329605e-05</internalNodes>
          <leafValues>
            -7.4316138029098511e-01 1.9638264179229736e-01</leafValues></_>
        <_>
          <internalNodes>
            0 -1 30 -1.5812900383025408e-03</internalNodes>
          <leafValues>
            5.5751264095306396e-01 -2.5388708710670471e-01</leafValues></_>
        <_>
          <internalNodes>
            0 -1 40 9.0768226073123515e-06</internalNodes>
          <leafValues>
            1.7282797396183014e-01 -7.3059886693954468e-01</leafValues></_>
        <_>
          <internalNodes>
            0 -1 56 -5.8970990357920527e-04</internalNodes>
          <leafValues>
            5.3690725564956665e-01 -2.6310163736343384e-01</leafValues></_>
        <_>
          <internalNodes>
            0 -1 0 2.7906959876418114e-03</internalNodes>
          <leafValues>
            -2.3874084651470184e-01 5.0207155942916870e-01</leafValues></_>
        <_>
          <internalNodes>
            0 -1 12 -3.3302217721939087e-02</internalNodes>
          <leafValues>
            6.6836005449295044e-01 -2.0976933836936951e-01</leafValues></_>
        <_>
          <internalNodes>
            0 -1 21 1.2162974599050358e-05</internalNodes>
          <leafValues>
            3.3276689052581787e-01 -3.9769306778907776e-01</leafValues></_></weakClassifiers></_></stages>
  <features>
    <_>
      <rects>
        <_>
          0 11 4 18 -1.</_>
        <_>
          2 11 2 18 2.</_></rects>
      <tilted>0</tilted></_>
    <_>
      <rects>
        <_>
          0 12 6 43 -1.</_>
        <_>
          3 12 3 43 2.</_></rects>
      <tilted>0</tilted></_>
    <_>
      <rects>
        <_>
          0 13 6 38 -1.</_>
        <_>
          3 13 3 38 2.</_></rects>
      <tilted>0</tilted></_>
    <_>
      <rects>
        <_>
          0 14 6 47 -1.</_>
        <_>
          3 14 3 47 2.</_></rects>
      <tilted>0</tilted></_>
    <_>
      <rects>
        <_>
          0 16 6 38 -1.</_>
        <_>
          3 16 3 38 2.</_></rects>
      <tilted>0</tilted></_>
    <_>
      <rects>
        <_>
          0 26 18 18 -1.</_>
        <_>
          6 26 6 18 3.</_></rects>
      <tilted>0</tilted></_>
    <_>
      <rects>
        <_>
          0 29 18 12 -1.</_>
        <_>
          6 29 6 12 3.</_></rects>
      <tilted>0</tilted></_>
    <_>
      <rects>
        <_>
          0 30 18 13 -1.</_>
        <_>
          6 30 6 13 3.</_></rects>
      <tilted>0</tilted></_>
    <_>
      <rects>
        <_>
          2 23 32 13 -1.</_>
        <_>
          18 23 16 13 2.</_></rects>
      <tilted>0</tilted></_>
    <_>
      <rects>
        <_>
          2 27 32 2 -1.</_>
        <_>
          18 27 16 2 2.</_></rects>
      <tilted>0</tilted></_>
    <_>
      <rects>
        <_>
          2 30 12 11 -1.</_>
        <_>
          6 30 4 11 3.</_></rects>
      <tilted>0</tilted></_>
    <_>
      <rects>
        <_>
          3 13 32 39 -1.</_>
        <_>
          19 13 16 39 2.</_></rects>
      <tilted>0</tilted></_>
    <_>
      <rects>
        <_>
          3 15 14 38 -1.</_>
        <_>
          3 15 7 19 2.</_>
        <_>
          10 34 7 19 2.</_></rects>
      <tilted>0</tilted></_>
    <_>
      <rects>
        <_>
          3 22 32 17 -1.</_>
        <_>
          19 22 16 17 2.</_></rects>
      <tilted>0</tilted></_>
    <_>
      <rects>
        <_>
          3 31 15 7 -1.</_>
        <_>
          8 31 5 7 3.</_></rects>
      <tilted>0</tilted></_>
    <_>
      <rects>
        <_>
          3 33 9 5 -1.</_>
        <_>
          6 33 3 5 3.</_></rects>
      <tilted>0</tilted></_>
    <_>
      <rects>
        <_>
          4 0 26 32 -1.</_>
        <_>
          4 0 13 16 2.</_>
        <_>
          17 16 13 16 2.</_></rects>
      <tilted>0</tilted></_>
    <_>
      <rects>
        <_>
          4 29 28 4 -1.</_>
        <_>
          18 29 14 4 2.</_></rects>
      <tilted>0</tilted></_>
    <_>
      <rects>
        <_>
          4 31 9 4 -1.</_>
        <_>
          7 31 3 4 3.</_></rects>
      <tilted>0</tilted></_>
    <_>
      <rects>
        <_>
          4 32 9 8 -1.</_>
        <_>
          7 32 3 8 3.</_></rects>
      <tilted>0</tilted></_>
    <_>
      <rects>
        <_>
          4 64 64 6 -1.</_>
        <_>
          4 67 64 3 2.</_></rects>
      <tilted>0</tilted></_>
    <_>
      <rects>
        <_>
          5 27 2 3 -1.</_>
        <_>
          6 27 1 3 2.</_></rects>
      <tilted>0</tilted></_>
    <_>
      <rects>
        <_>
          5 44 12 16 -1.</_>
        <_>
          9 44 4 16 3.</_></rects>
      <tilted>0</tilted></_>
    <_>
      <rects>
        <_>
          5 66 62 4 -1.</_>
        <_>
          5 68 62 2 2.</_></rects>
      <tilted>0</tilted></_>
    <_>
      <rects>
        <_>
          6 19 12 5 -1.</_>
        <_>
          10 19 4 5 3.</_></rects>
      <tilted>0</tilted></_>
    <_>
      <rects>
        <_>
          6 31 9 11 -1.</_>
        <_>
          9 31 3 11 3.</_></rects>
      <tilted>0</tilted></_>
    <_>
      <rects>
        <_>
          6 46 2 2 -1.</_>
        <_>
          7 46 1 2 2.</_></rects>
      <tilted>0</tilted></_>
    <_>
      <rects>
        <_>
          6 66 59 4 -1.</_>
        <_>
          6 68 59 2 2.</_></rects>
      <tilted>0</tilted></_>
    <_>
      <rects>
        <_>
          7 27 12 18 -1.</_>
        <_>
          13 27 6 18 2.</_></rects>
      <tilted>0</tilted></_>
    <_>
      <rects>
        <_>
          7 34 2 5 -1.</_>
        <_>
          8 34 1 5 2.</_></rects>
      <tilted>0</tilted></_>
    <_>
      <rects>
        <_>
          7 34 4 20 -1.</_>
        <_>
          7 34 2 10 2.</_>
        <_>
          9 44 2 10 2.</_></rects>
      <tilted>0</tilted></_>
    <_>
      <rects>
        <_>
          7 35 2 2 -1.</_>
        <_>
          8 35 1 2 2.</_></rects>
      <tilted>0</tilted></_>
    <_>
      <rects>
        <_>
          8 0 46 6 -1.</_>
        <_>
          8 3 46 3 2.</_></rects>
      <tilted>0</tilted></_>
    <_>
      <rects>
        <_>
          8 25 1 12 -1.</_>
        <_>
          8 29 1 4 3.</_></rects>
      <tilted>0</tilted></_>
    <_>
      <rects>
        <_>
          8 30 1 8 -1.</_>
        <_>
          8 34 1 4 2.</_></rects>
      <tilted>0</tilted></_>
    <_>
      <rects>
        <_>
          8 32 1 4 -1.</_>
        <_>
          8 34 1 2 2.</_></rects>
      <tilted>0</tilted></_>
    <_>
      <rects>
        <_>
          8 32 1 6 -1.</_>
        <_>
          8 35 1 3 2.</_></rects>
      <tilted>0</tilted></_>
    <_>
      <rects>
        <_>
          8 32 1 8 -1.</_>
        <_>
          8 36 1 4 2.</_></rects>
      <tilted>0</tilted></_>
    <_>
      <rects>
        <_>
          8 33 1 6 -1.</_>
        <_>
          8 36 1 3 2.</_></rects>
      <tilted>0</tilted></_>
    <_>
      <rects>
        <_>
          8 33 2 4 -1.</_>
        <_>
          9 33 1 4 2.</_></rects>
      <tilted>0</tilted></_>
    <_>
      <rects>
        <_>
          8 34 1 4 -1.</_>
        <_>
          8 36 1 2 2.</_></rects>
      <tilted>0</tilted></_>
    <_>
      <rects>
        <_>
          8 34 2 3 -1.</_>
        <_>
          9 34 1 3 2.</_></rects>
      <tilted>0</tilted></_>
    <_>
      <rects>
        <_>
          8 34 2 4 -1.</_>
        <_>
          9 34 1 4 2.</_></rects>
      <tilted>0</tilted></_>
    <_>
      <rects>
        <_>
          8 35 1 4 -1.</_>
        <_>
          8 37 1 2 2.</_></rects>
      <tilted>0</tilted></_>
    <_>
      <rects>
        <_>
          9 31 1 8 -1.</_>
        <_>
          9 35 1 4 2.</_></rects>
      <tilted>0</tilted></_>
    <_>
      <rects>
        <_>
          9 32 1 6 -1.</_>
        <_>
          9 35 1 3 2.</_></rects>
      <tilted>0</tilted></_>
    <_>
      <rects>
        <_>
          11 0 57 4 -1.</_>
        <_>
          11 2 57 2 2.</_></rects>
      <tilted>0</tilted></_>
    <_>
      <rects>
        <_>
          14 0 42 6 -1.</_>
        <_>
          14 3 42 3 2.</_></rects>
      <tilted>0</tilted></_>
    <_>
      <rects>
        <_>
          18 0 33 12 -1.</_>
        <_>
          18 4 33 4 3.</_></rects>
      <tilted>0</tilted></_>
    <_>
      <rects>
        <_>
          25 3 21 14 -1.</_>
        <_>
          25 10 21 7 2.</_></rects>
      <tilted>0</tilted></_>
    <_>
      <rects>
        <_>
          28 32 40 2 -1.</_>
        <_>
          48 32 20 2 2.</_></rects>
      <tilted>0</tilted></_>
    <_>
      <rects>
        <_>
          29 14 40 3 -1.</_>
        <_>
          49 14 20 3 2.</_></rects>
      <tilted>0</tilted></_>
    <_>
      <rects>
        <_>
          32 0 8 12 -1.</_>
        <_>
          32 4 8 4 3.</_></rects>
      <tilted>0</tilted></_>
    <_>
      <rects>
        <_>
          33 1 5 6 -1.</_>
        <_>
          33 3 5 2 3.</_></rects>
      <tilted>0</tilted></_>
    <_>
      <rects>
        <_>
          33 2 6 9 -1.</_>
        <_>
          33 5 6 3 3.</_></rects>
      <tilted>0</tilted></_>
    <_>
      <rects>
        <_>
          34 4 2 6 -1.</_>
        <_>
          34 6 2 2 3.</_></rects>
      <tilted>0</tilted></_>
    <_>
      <rects>
        <_>
          37 4 6 6 -1.</_>
        <_>
          37 6 6 2 3.</_></rects>
      <tilted>0</tilted></_>
    <_>
      <rects>
        <_>
          37 5 4 3 -1.</_>
        <_>
          37 6 4 1 3.</_></rects>
      <tilted>0</tilted></_>
    <_>
      <rects>
        <_>
          47 23 18 22 -1.</_>
        <_>
          56 23 9 22 2.</_></rects>
      <tilted>0</tilted></_>
    <_>
      <rects>
        <_>
          50 24 14 22 -1.</_>
        <_>
          57 24 7 22 2.</_></rects>
      <tilted>0</tilted></_>
    <_>
      <rects>
        <_>
          50 30 14 12 -1.</_>
        <_>
          57 30 7 12 2.</_></rects>
      <tilted>0</tilted></_>
    <_>
      <rects>
        <_>
          51 26 12 17 -1.</_>
        <_>
          57 26 6 17 2.</_></rects>
      <tilted>0</tilted></_>
    <_>
      <rects>
        <_>
          52 30 18 8 -1.</_>
        <_>
          58 30 6 8 3.</_></rects>
      <tilted>0</tilted></_>
    <_>
      <rects>
        <_>
          52 45 15 11 -1.</_>
        <_>
          57 45 5 11 3.</_></rects>
      <tilted>0</tilted></_>
    <_>
      <rects>
        <_>
          54 29 15 13 -1.</_>
        <_>
          59 29 5 13 3.</_></rects>
      <tilted>0</tilted></_>
    <_>
      <rects>
        <_>
          55 12 14 44 -1.</_>
        <_>
          55 12 7 22 2.</_>
        <_>
          62 34 7 22 2.</_></rects>
      <tilted>0</tilted></_>
    <_>
      <rects>
        <_>
          56 19 10 34 -1.</_>
        <_>
          56 19 5 17 2.</_>
        <_>
          61 36 5 17 2.</_></rects>
      <tilted>0</tilted></_>
    <_>
      <rects>
        <_>
          56 30 9 10 -1.</_>
        <_>
          59 30 3 10 3.</_></rects>
      <tilted>0</tilted></_>
    <_>
      <rects>
        <_>
          56 40 10 7 -1.</_>
        <_>
          61 40 5 7 2.</_></rects>
      <tilted>0</tilted></_>
    <_>
      <rects>
        <_>
          57 27 6 17 -1.</_>
        <_>
          59 27 2 17 3.</_></rects>
      <tilted>0</tilted></_>
    <_>
      <rects>
        <_>
          57 29 9 12 -1.</_>
        <_>
          60 29 3 12 3.</_></rects>
      <tilted>0</tilted></_>
    <_>
      <rects>
        <_>
          58 19 12 14 -1.</_>
        <_>
          62 19 4 14 3.</_></rects>
      <tilted>0</tilted></_>
    <_>
      <rects>
        <_>
          58 32 9 6 -1.</_>
        <_>
          61 32 3 6 3.</_></rects>
      <tilted>0</tilted></_>
    <_>
      <rects>
        <_>
          58 37 12 16 -1.</_>
        <_>
          62 37 4 16 3.</_></rects>
      <tilted>0</tilted></_>
    <_>
      <rects>
        <_>
          61 29 1 6 -1.</_>
        <_>
          61 31 1 2 3.</_></rects>
      <tilted>0</tilted></_>
    <_>
      <rects>
        <_>
          61 32 1 6 -1.</_>
        <_>
          61 35 1 3 2.</_></rects>
      <tilted>0</tilted></_>
    <_>
      <rects>
        <_>
          62 0 1 44 -1.</_>
        <_>
          62 22 1 22 2.</_></rects>
      <tilted>0</tilted></_>
    <_>
      <rects>
        <_>
          62 21 8 26 -1.</_>
        <_>
          66 21 4 26 2.</_></rects>
      <tilted>0</tilted></_>
    <_>
      <rects>
        <_>
          62 27 8 20 -1.</_>
        <_>
          66 27 4 20 2.</_></rects>
      <tilted>0</tilted></_>
    <_>
      <rects>
        <_>
          62 31 1 6 -1.</_>
        <_>
          62 34 1 3 2.</_></rects>
      <tilted>0</tilted></_>
    <_>
      <rects>
        <_>
          62 32 1 4 -1.</_>
        <_>
          62 34 1 2 2.</_></rects>
      <tilted>0</tilted></_>
    <_>
      <rects>
        <_>
          62 33 1 9 -1.</_>
        <_>
          62 36 1 3 3.</_></rects>
      <tilted>0</tilted></_>
    <_>
      <rects>
        <_>
          62 34 2 5 -1.</_>
        <_>
          63 34 1 5 2.</_></rects>
      <tilted>0</tilted></_>
    <_>
      <rects>
        <_>
          64 14 6 40 -1.</_>
        <_>
          67 14 3 40 2.</_></rects>
      <tilted>0</tilted></_>
    <_>
      <rects>
        <_>
          66 16 4 35 -1.</_>
        <_>
          68 16 2 35 2.</_></rects>
      <tilted>0</tilted></_></features></cascade>
</opencv_storage>
