<?xml version="1.0"?>
<opencv_storage>
<stage5>
  <maxWeakCount>8</maxWeakCount>
  <stageThreshold>-1.1472928524017334e+00</stageThreshold>
  <weakClassifiers>
    <_>
      <internalNodes>
        0 -1 2689721 -1.9814295228570700e-05</internalNodes>
      <leafValues>
        -6.0876899957656860e-01 5.6543415784835815e-01</leafValues></_>
    <_>
      <internalNodes>
        0 -1 2698979 5.9061276260763407e-06</internalNodes>
      <leafValues>
        3.6187377572059631e-01 -6.8498635292053223e-01</leafValues></_>
    <_>
      <internalNodes>
        0 -1 10873112 1.9289849326014519e-02</internalNodes>
      <leafValues>
        -4.8676830530166626e-01 4.6378138661384583e-01</leafValues></_>
    <_>
      <internalNodes>
        0 -1 103539 8.4808645769953728e-03</internalNodes>
      <leafValues>
        -5.5100488662719727e-01 5.0853139162063599e-01</leafValues></_>
    <_>
      <internalNodes>
        0 -1 6813115 -5.3341342136263847e-03</internalNodes>
      <leafValues>
        3.9610335230827332e-01 -4.6505454182624817e-01</leafValues></_>
    <_>
      <internalNodes>
        0 -1 2105872 3.1517394818365574e-03</internalNodes>
      <leafValues>
        -4.6695426106452942e-01 3.7469068169593811e-01</leafValues></_>
    <_>
      <internalNodes>
        0 -1 11459765 -1.2659269486903213e-05</internalNodes>
      <leafValues>
        -7.6013863086700439e-01 2.7210381627082825e-01</leafValues></_>
    <_>
      <internalNodes>
        0 -1 10889681 -5.7302145287394524e-03</internalNodes>
      <leafValues>
        5.5706447362899780e-01 -3.7692254781723022e-01</leafValues></_></weakClassifiers></stage5>
</opencv_storage>
