<?xml version="1.0"?>
<opencv_storage>
<stage7>
  <maxWeakCount>10</maxWeakCount>
  <stageThreshold>-8.3626288175582886e-01</stageThreshold>
  <weakClassifiers>
    <_>
      <internalNodes>
        0 -1 1196957 8.8155851699411869e-04</internalNodes>
      <leafValues>
        -4.3767312169075012e-01 5.7769972085952759e-01</leafValues></_>
    <_>
      <internalNodes>
        0 -1 11557189 -2.9643962625414133e-03</internalNodes>
      <leafValues>
        4.6187859773635864e-01 -4.7572430968284607e-01</leafValues></_>
    <_>
      <internalNodes>
        0 -1 2707742 -1.1086047379649244e-05</internalNodes>
      <leafValues>
        -6.5673351287841797e-01 2.7532997727394104e-01</leafValues></_>
    <_>
      <internalNodes>
        0 -1 2039841 -4.0925377979874611e-03</internalNodes>
      <leafValues>
        7.1868580579757690e-01 -2.6126119494438171e-01</leafValues></_>
    <_>
      <internalNodes>
        0 -1 11074120 -2.7672363445162773e-02</internalNodes>
      <leafValues>
        6.9611507654190063e-01 -2.5223845243453979e-01</leafValues></_>
    <_>
      <internalNodes>
        0 -1 2985511 1.2289106962271035e-05</internalNodes>
      <leafValues>
        3.0220922827720642e-01 -5.9135508537292480e-01</leafValues></_>
    <_>
      <internalNodes>
        0 -1 8347945 -5.5340898688882589e-04</internalNodes>
      <leafValues>
        5.6714648008346558e-01 -3.0911061167716980e-01</leafValues></_>
    <_>
      <internalNodes>
        0 -1 2981044 -7.7292224887060001e-06</internalNodes>
      <leafValues>
        -5.7705432176589966e-01 3.4230676293373108e-01</leafValues></_>
    <_>
      <internalNodes>
        0 -1 11173119 8.2857040688395500e-03</internalNodes>
      <leafValues>
        -3.2723557949066162e-01 5.6289857625961304e-01</leafValues></_>
    <_>
      <internalNodes>
        0 -1 11420984 -1.1218767212994862e-05</internalNodes>
      <leafValues>
        -7.0480829477310181e-01 2.7923086285591125e-01</leafValues></_></weakClassifiers></stage7>
</opencv_storage>
