<?xml version="1.0"?>
<opencv_storage>
<stage6>
  <maxWeakCount>10</maxWeakCount>
  <stageThreshold>-9.3899577856063843e-01</stageThreshold>
  <weakClassifiers>
    <_>
      <internalNodes>
        0 -1 10389799 1.6247268766164780e-02</internalNodes>
      <leafValues>
        -5.4728680849075317e-01 5.7452231645584106e-01</leafValues></_>
    <_>
      <internalNodes>
        0 -1 4172982 4.9477824941277504e-03</internalNodes>
      <leafValues>
        -3.7529000639915466e-01 5.7041573524475098e-01</leafValues></_>
    <_>
      <internalNodes>
        0 -1 2383484 -1.0324114002287388e-02</internalNodes>
      <leafValues>
        3.4998273849487305e-01 -6.1929398775100708e-01</leafValues></_>
    <_>
      <internalNodes>
        0 -1 2698979 -1.2622587746591307e-05</internalNodes>
      <leafValues>
        -7.3134529590606689e-01 2.1505907177925110e-01</leafValues></_>
    <_>
      <internalNodes>
        0 -1 2664560 -1.7148606275441125e-05</internalNodes>
      <leafValues>
        -7.4301242828369141e-01 1.9755329191684723e-01</leafValues></_>
    <_>
      <internalNodes>
        0 -1 11223343 5.6172600015997887e-03</internalNodes>
      <leafValues>
        -4.6709904074668884e-01 3.5840064287185669e-01</leafValues></_>
    <_>
      <internalNodes>
        0 -1 9026220 -1.7624106840230525e-04</internalNodes>
      <leafValues>
        6.7092406749725342e-01 -2.3202969133853912e-01</leafValues></_>
    <_>
      <internalNodes>
        0 -1 11460326 9.0996154540334828e-06</internalNodes>
      <leafValues>
        2.9215282201766968e-01 -4.9484860897064209e-01</leafValues></_>
    <_>
      <internalNodes>
        0 -1 1593882 -2.4594715796411037e-03</internalNodes>
      <leafValues>
        3.4321159124374390e-01 -4.1212624311447144e-01</leafValues></_>
    <_>
      <internalNodes>
        0 -1 1287305 -1.0232846252620220e-02</internalNodes>
      <leafValues>
        2.4888697266578674e-01 -5.7657003402709961e-01</leafValues></_></weakClassifiers></stage6>
</opencv_storage>
