<?xml version="1.0"?>
<opencv_storage>
<cascade>
  <stageType>BOOST</stageType>
  <featureType>HAAR</featureType>
  <height>70</height>
  <width>70</width>
  <stageParams>
    <boostType>GAB</boostType>
    <minHitRate>9.9500000476837158e-01</minHitRate>
    <maxFalseAlarm>5.0000000000000000e-01</maxFalseAlarm>
    <weightTrimRate>9.4999999999999996e-01</weightTrimRate>
    <maxDepth>1</maxDepth>
    <maxWeakCount>100</maxWeakCount></stageParams>
  <featureParams>
    <maxCatCount>0</maxCatCount>
    <featSize>1</featSize>
    <mode>BASIC</mode></featureParams>
  <stageNum>9</stageNum>
  <stages>
    <!-- stage 0 -->
    <_>
      <maxWeakCount>4</maxWeakCount>
      <stageThreshold>-3.6829349398612976e-01</stageThreshold>
      <weakClassifiers>
        <_>
          <internalNodes>
            0 -1 11 1.0233005881309509e-01</internalNodes>
          <leafValues>
            -8.3600002527236938e-01 9.1799998283386230e-01</leafValues></_>
        <_>
          <internalNodes>
            0 -1 3 1.6043777763843536e-01</internalNodes>
          <leafValues>
            -5.8342748880386353e-01 7.9950779676437378e-01</leafValues></_>
        <_>
          <internalNodes>
            0 -1 42 -6.0872689573443495e-06</internalNodes>
          <leafValues>
            -9.6962136030197144e-01 5.2442121505737305e-01</leafValues></_>
        <_>
          <internalNodes>
            0 -1 43 7.3333499130967539e-06</internalNodes>
          <leafValues>
            5.2671277523040771e-01 -9.9027216434478760e-01</leafValues></_></weakClassifiers></_>
    <!-- stage 1 -->
    <_>
      <maxWeakCount>5</maxWeakCount>
      <stageThreshold>-1.3357326984405518e+00</stageThreshold>
      <weakClassifiers>
        <_>
          <internalNodes>
            0 -1 2 1.2041956186294556e-01</internalNodes>
          <leafValues>
            -7.4006444215774536e-01 8.1633639335632324e-01</leafValues></_>
        <_>
          <internalNodes>
            0 -1 32 1.2934700353071094e-03</internalNodes>
          <leafValues>
            -6.8964821100234985e-01 6.4375895261764526e-01</leafValues></_>
        <_>
          <internalNodes>
            0 -1 4 1.5673052985221148e-03</internalNodes>
          <leafValues>
            -6.4831972122192383e-01 5.8240896463394165e-01</leafValues></_>
        <_>
          <internalNodes>
            0 -1 25 1.7158472473965958e-05</internalNodes>
          <leafValues>
            4.1591864824295044e-01 -9.1784846782684326e-01</leafValues></_>
        <_>
          <internalNodes>
            0 -1 24 -2.3948276066221297e-05</internalNodes>
          <leafValues>
            -9.9063360691070557e-01 3.2638105750083923e-01</leafValues></_></weakClassifiers></_>
    <!-- stage 2 -->
    <_>
      <maxWeakCount>5</maxWeakCount>
      <stageThreshold>-3.0815193057060242e-01</stageThreshold>
      <weakClassifiers>
        <_>
          <internalNodes>
            0 -1 17 3.4208744764328003e-03</internalNodes>
          <leafValues>
            -7.7181208133697510e-01 6.9844788312911987e-01</leafValues></_>
        <_>
          <internalNodes>
            0 -1 44 -9.1634225100278854e-03</internalNodes>
          <leafValues>
            6.7886275053024292e-01 -5.7566386461257935e-01</leafValues></_>
        <_>
          <internalNodes>
            0 -1 22 -6.3106010202318430e-05</internalNodes>
          <leafValues>
            -9.6119248867034912e-01 3.9984416961669922e-01</leafValues></_>
        <_>
          <internalNodes>
            0 -1 23 1.5401188647956587e-05</internalNodes>
          <leafValues>
            3.5903441905975342e-01 -9.4046694040298462e-01</leafValues></_>
        <_>
          <internalNodes>
            0 -1 6 4.2967509943991899e-04</internalNodes>
          <leafValues>
            -8.0652713775634766e-01 3.8695549964904785e-01</leafValues></_></weakClassifiers></_>
    <!-- stage 3 -->
    <_>
      <maxWeakCount>4</maxWeakCount>
      <stageThreshold>1.3395634293556213e-01</stageThreshold>
      <weakClassifiers>
        <_>
          <internalNodes>
            0 -1 30 8.3383463788777590e-05</internalNodes>
          <leafValues>
            -8.2444059848785400e-01 6.1140966415405273e-01</leafValues></_>
        <_>
          <internalNodes>
            0 -1 26 -1.2333187623880804e-04</internalNodes>
          <leafValues>
            -9.9646669626235962e-01 4.1448083519935608e-01</leafValues></_>
        <_>
          <internalNodes>
            0 -1 40 2.2168338546180166e-05</internalNodes>
          <leafValues>
            2.7724573016166687e-01 -9.3770974874496460e-01</leafValues></_>
        <_>
          <internalNodes>
            0 -1 34 -2.5759840355021879e-05</internalNodes>
          <leafValues>
            -9.5806080102920532e-01 2.6667037606239319e-01</leafValues></_></weakClassifiers></_>
    <!-- stage 4 -->
    <_>
      <maxWeakCount>5</maxWeakCount>
      <stageThreshold>-8.3792769908905029e-01</stageThreshold>
      <weakClassifiers>
        <_>
          <internalNodes>
            0 -1 27 1.2908148346468806e-04</internalNodes>
          <leafValues>
            5.9511202573776245e-01 -8.4587156772613525e-01</leafValues></_>
        <_>
          <internalNodes>
            0 -1 13 1.1940134316682816e-01</internalNodes>
          <leafValues>
            -7.2994571924209595e-01 5.9231317043304443e-01</leafValues></_>
        <_>
          <internalNodes>
            0 -1 33 2.2358651040121913e-04</internalNodes>
          <leafValues>
            -8.4816509485244751e-01 3.6529284715652466e-01</leafValues></_>
        <_>
          <internalNodes>
            0 -1 8 2.1194280125200748e-03</internalNodes>
          <leafValues>
            -5.1700258255004883e-01 5.2057015895843506e-01</leafValues></_>
        <_>
          <internalNodes>
            0 -1 0 7.0376014336943626e-03</internalNodes>
          <leafValues>
            -4.3265956640243530e-01 6.7304497957229614e-01</leafValues></_></weakClassifiers></_>
    <!-- stage 5 -->
    <_>
      <maxWeakCount>5</maxWeakCount>
      <stageThreshold>-4.1265934705734253e-01</stageThreshold>
      <weakClassifiers>
        <_>
          <internalNodes>
            0 -1 39 6.0213187680346891e-05</internalNodes>
          <leafValues>
            -8.6592179536819458e-01 5.9480309486389160e-01</leafValues></_>
        <_>
          <internalNodes>
            0 -1 12 8.5864338325336576e-04</internalNodes>
          <leafValues>
            -5.9102451801300049e-01 4.9719980359077454e-01</leafValues></_>
        <_>
          <internalNodes>
            0 -1 28 2.1700157958548516e-05</internalNodes>
          <leafValues>
            4.1682070493698120e-01 -9.2235362529754639e-01</leafValues></_>
        <_>
          <internalNodes>
            0 -1 29 -3.2959476811811328e-05</internalNodes>
          <leafValues>
            -9.5764827728271484e-01 1.5126284956932068e-01</leafValues></_>
        <_>
          <internalNodes>
            0 -1 18 6.5144622931256890e-04</internalNodes>
          <leafValues>
            -6.1202090978622437e-01 4.1143509745597839e-01</leafValues></_></weakClassifiers></_>
    <!-- stage 6 -->
    <_>
      <maxWeakCount>6</maxWeakCount>
      <stageThreshold>-6.5936845541000366e-01</stageThreshold>
      <weakClassifiers>
        <_>
          <internalNodes>
            0 -1 35 3.3800708479247987e-05</internalNodes>
          <leafValues>
            5.4158532619476318e-01 -8.8154900074005127e-01</leafValues></_>
        <_>
          <internalNodes>
            0 -1 41 3.9486278546974063e-04</internalNodes>
          <leafValues>
            -7.2069084644317627e-01 4.1697615385055542e-01</leafValues></_>
        <_>
          <internalNodes>
            0 -1 7 2.0703123882412910e-03</internalNodes>
          <leafValues>
            -5.7453018426895142e-01 4.8523592948913574e-01</leafValues></_>
        <_>
          <internalNodes>
            0 -1 35 -3.3749352041922975e-06</internalNodes>
          <leafValues>
            -8.6355519294738770e-01 2.8759840130805969e-01</leafValues></_>
        <_>
          <internalNodes>
            0 -1 14 1.4254840789362788e-04</internalNodes>
          <leafValues>
            -4.5908483862876892e-01 6.2081575393676758e-01</leafValues></_>
        <_>
          <internalNodes>
            0 -1 1 1.7530295252799988e-01</internalNodes>
          <leafValues>
            -7.8052580356597900e-01 3.1744122505187988e-01</leafValues></_></weakClassifiers></_>
    <!-- stage 7 -->
    <_>
      <maxWeakCount>6</maxWeakCount>
      <stageThreshold>-8.7423044443130493e-01</stageThreshold>
      <weakClassifiers>
        <_>
          <internalNodes>
            0 -1 19 1.2332620099186897e-04</internalNodes>
          <leafValues>
            -8.6117136478424072e-01 5.5021661520004272e-01</leafValues></_>
        <_>
          <internalNodes>
            0 -1 20 1.5466464901692234e-05</internalNodes>
          <leafValues>
            3.3794406056404114e-01 -7.9073804616928101e-01</leafValues></_>
        <_>
          <internalNodes>
            0 -1 16 9.3584684655070305e-03</internalNodes>
          <leafValues>
            -8.0267947912216187e-01 3.2700732350349426e-01</leafValues></_>
        <_>
          <internalNodes>
            0 -1 15 -1.0903045767918229e-04</internalNodes>
          <leafValues>
            5.0338977575302124e-01 -5.0699675083160400e-01</leafValues></_>
        <_>
          <internalNodes>
            0 -1 21 1.8765680579235777e-05</internalNodes>
          <leafValues>
            2.6317933201789856e-01 -8.0412948131561279e-01</leafValues></_>
        <_>
          <internalNodes>
            0 -1 9 1.5068140346556902e-03</internalNodes>
          <leafValues>
            -4.3419307470321655e-01 5.7373732328414917e-01</leafValues></_></weakClassifiers></_>
    <!-- stage 8 -->
    <_>
      <maxWeakCount>6</maxWeakCount>
      <stageThreshold>-4.8643606901168823e-01</stageThreshold>
      <weakClassifiers>
        <_>
          <internalNodes>
            0 -1 38 3.2526062568649650e-05</internalNodes>
          <leafValues>
            5.0571209192276001e-01 -8.7700533866882324e-01</leafValues></_>
        <_>
          <internalNodes>
            0 -1 5 4.9604894593358040e-04</internalNodes>
          <leafValues>
            -7.5570255517959595e-01 3.1387025117874146e-01</leafValues></_>
        <_>
          <internalNodes>
            0 -1 10 1.8303354084491730e-01</internalNodes>
          <leafValues>
            -5.0564813613891602e-01 4.4675529003143311e-01</leafValues></_>
        <_>
          <internalNodes>
            0 -1 31 1.0984231266775168e-05</internalNodes>
          <leafValues>
            2.1338312327861786e-01 -8.5637807846069336e-01</leafValues></_>
        <_>
          <internalNodes>
            0 -1 36 8.2378945080563426e-05</internalNodes>
          <leafValues>
            -9.1244477033615112e-01 2.1770603954792023e-01</leafValues></_>
        <_>
          <internalNodes>
            0 -1 37 -9.2384052550187334e-06</internalNodes>
          <leafValues>
            1.5125799179077148e-01 -9.1667097806930542e-01</leafValues></_></weakClassifiers></_></stages>
  <features>
    <_>
      <rects>
        <_>
          1 0 54 8 -1.</_>
        <_>
          1 0 27 4 2.</_>
        <_>
          28 4 27 4 2.</_></rects>
      <tilted>0</tilted></_>
    <_>
      <rects>
        <_>
          1 6 64 52 -1.</_>
        <_>
          33 6 32 52 2.</_></rects>
      <tilted>0</tilted></_>
    <_>
      <rects>
        <_>
          20 19 46 31 -1.</_>
        <_>
          43 19 23 31 2.</_></rects>
      <tilted>0</tilted></_>
    <_>
      <rects>
        <_>
          21 13 38 54 -1.</_>
        <_>
          40 13 19 54 2.</_></rects>
      <tilted>0</tilted></_>
    <_>
      <rects>
        <_>
          31 49 10 15 -1.</_>
        <_>
          31 54 10 5 3.</_></rects>
      <tilted>0</tilted></_>
    <_>
      <rects>
        <_>
          31 49 16 12 -1.</_>
        <_>
          31 53 16 4 3.</_></rects>
      <tilted>0</tilted></_>
    <_>
      <rects>
        <_>
          31 50 11 12 -1.</_>
        <_>
          31 54 11 4 3.</_></rects>
      <tilted>0</tilted></_>
    <_>
      <rects>
        <_>
          33 51 7 15 -1.</_>
        <_>
          33 56 7 5 3.</_></rects>
      <tilted>0</tilted></_>
    <_>
      <rects>
        <_>
          33 52 6 15 -1.</_>
        <_>
          33 57 6 5 3.</_></rects>
      <tilted>0</tilted></_>
    <_>
      <rects>
        <_>
          34 3 8 9 -1.</_>
        <_>
          34 6 8 3 3.</_></rects>
      <tilted>0</tilted></_>
    <_>
      <rects>
        <_>
          34 16 36 44 -1.</_>
        <_>
          46 16 12 44 3.</_></rects>
      <tilted>0</tilted></_>
    <_>
      <rects>
        <_>
          34 18 36 40 -1.</_>
        <_>
          46 18 12 40 3.</_></rects>
      <tilted>0</tilted></_>
    <_>
      <rects>
        <_>
          34 46 11 8 -1.</_>
        <_>
          34 50 11 4 2.</_></rects>
      <tilted>0</tilted></_>
    <_>
      <rects>
        <_>
          35 16 33 41 -1.</_>
        <_>
          46 16 11 41 3.</_></rects>
      <tilted>0</tilted></_>
    <_>
      <rects>
        <_>
          36 4 2 4 -1.</_>
        <_>
          36 6 2 2 2.</_></rects>
      <tilted>0</tilted></_>
    <_>
      <rects>
        <_>
          36 60 1 6 -1.</_>
        <_>
          36 63 1 3 2.</_></rects>
      <tilted>0</tilted></_>
    <_>
      <rects>
        <_>
          39 30 24 13 -1.</_>
        <_>
          47 30 8 13 3.</_></rects>
      <tilted>0</tilted></_>
    <_>
      <rects>
        <_>
          40 26 15 20 -1.</_>
        <_>
          45 26 5 20 3.</_></rects>
      <tilted>0</tilted></_>
    <_>
      <rects>
        <_>
          44 1 6 18 -1.</_>
        <_>
          44 7 6 6 3.</_></rects>
      <tilted>0</tilted></_>
    <_>
      <rects>
        <_>
          46 33 24 2 -1.</_>
        <_>
          54 33 8 2 3.</_></rects>
      <tilted>0</tilted></_>
    <_>
      <rects>
        <_>
          47 33 15 1 -1.</_>
        <_>
          52 33 5 1 3.</_></rects>
      <tilted>0</tilted></_>
    <_>
      <rects>
        <_>
          48 34 9 7 -1.</_>
        <_>
          51 34 3 7 3.</_></rects>
      <tilted>0</tilted></_>
    <_>
      <rects>
        <_>
          49 31 10 11 -1.</_>
        <_>
          54 31 5 11 2.</_></rects>
      <tilted>0</tilted></_>
    <_>
      <rects>
        <_>
          49 34 10 5 -1.</_>
        <_>
          54 34 5 5 2.</_></rects>
      <tilted>0</tilted></_>
    <_>
      <rects>
        <_>
          50 27 4 13 -1.</_>
        <_>
          52 27 2 13 2.</_></rects>
      <tilted>0</tilted></_>
    <_>
      <rects>
        <_>
          50 29 4 12 -1.</_>
        <_>
          52 29 2 12 2.</_></rects>
      <tilted>0</tilted></_>
    <_>
      <rects>
        <_>
          51 22 7 18 -1.</_>
        <_>
          51 31 7 9 2.</_></rects>
      <tilted>0</tilted></_>
    <_>
      <rects>
        <_>
          51 23 6 16 -1.</_>
        <_>
          51 31 6 8 2.</_></rects>
      <tilted>0</tilted></_>
    <_>
      <rects>
        <_>
          51 30 3 15 -1.</_>
        <_>
          51 35 3 5 3.</_></rects>
      <tilted>0</tilted></_>
    <_>
      <rects>
        <_>
          51 30 5 15 -1.</_>
        <_>
          51 35 5 5 3.</_></rects>
      <tilted>0</tilted></_>
    <_>
      <rects>
        <_>
          52 0 2 42 -1.</_>
        <_>
          52 14 2 14 3.</_></rects>
      <tilted>0</tilted></_>
    <_>
      <rects>
        <_>
          52 32 6 10 -1.</_>
        <_>
          54 32 2 10 3.</_></rects>
      <tilted>0</tilted></_>
    <_>
      <rects>
        <_>
          52 32 18 5 -1.</_>
        <_>
          58 32 6 5 3.</_></rects>
      <tilted>0</tilted></_>
    <_>
      <rects>
        <_>
          53 28 2 42 -1.</_>
        <_>
          53 42 2 14 3.</_></rects>
      <tilted>0</tilted></_>
    <_>
      <rects>
        <_>
          53 28 7 21 -1.</_>
        <_>
          53 35 7 7 3.</_></rects>
      <tilted>0</tilted></_>
    <_>
      <rects>
        <_>
          53 30 2 18 -1.</_>
        <_>
          53 36 2 6 3.</_></rects>
      <tilted>0</tilted></_>
    <_>
      <rects>
        <_>
          54 0 2 56 -1.</_>
        <_>
          54 28 2 28 2.</_></rects>
      <tilted>0</tilted></_>
    <_>
      <rects>
        <_>
          54 14 1 56 -1.</_>
        <_>
          54 42 1 28 2.</_></rects>
      <tilted>0</tilted></_>
    <_>
      <rects>
        <_>
          54 32 6 6 -1.</_>
        <_>
          56 32 2 6 3.</_></rects>
      <tilted>0</tilted></_>
    <_>
      <rects>
        <_>
          55 0 2 48 -1.</_>
        <_>
          55 16 2 16 3.</_></rects>
      <tilted>0</tilted></_>
    <_>
      <rects>
        <_>
          55 28 1 21 -1.</_>
        <_>
          55 35 1 7 3.</_></rects>
      <tilted>0</tilted></_>
    <_>
      <rects>
        <_>
          55 34 15 3 -1.</_>
        <_>
          60 34 5 3 3.</_></rects>
      <tilted>0</tilted></_>
    <_>
      <rects>
        <_>
          56 31 2 4 -1.</_>
        <_>
          57 31 1 4 2.</_></rects>
      <tilted>0</tilted></_>
    <_>
      <rects>
        <_>
          56 31 2 5 -1.</_>
        <_>
          57 31 1 5 2.</_></rects>
      <tilted>0</tilted></_>
    <_>
      <rects>
        <_>
          62 19 8 29 -1.</_>
        <_>
          66 19 4 29 2.</_></rects>
      <tilted>0</tilted></_></features></cascade>
</opencv_storage>
