<?xml version="1.0"?>
<opencv_storage>
<stage1>
  <maxWeakCount>5</maxWeakCount>
  <stageThreshold>-1.3357326984405518e+00</stageThreshold>
  <weakClassifiers>
    <_>
      <internalNodes>
        0 -1 5781998 1.2041956186294556e-01</internalNodes>
      <leafValues>
        -7.4006444215774536e-01 8.1633639335632324e-01</leafValues></_>
    <_>
      <internalNodes>
        0 -1 10875768 1.2934700353071094e-03</internalNodes>
      <leafValues>
        -6.8964821100234985e-01 6.4375895261764526e-01</leafValues></_>
    <_>
      <internalNodes>
        0 -1 8148837 1.5673052985221148e-03</internalNodes>
      <leafValues>
        -6.4831972122192383e-01 5.8240896463394165e-01</leafValues></_>
    <_>
      <internalNodes>
        0 -1 10696834 1.7158472473965958e-05</internalNodes>
      <leafValues>
        4.1591864824295044e-01 -9.1784846782684326e-01</leafValues></_>
    <_>
      <internalNodes>
        0 -1 10693666 -2.3948276066221297e-05</internalNodes>
      <leafValues>
        -9.9063360691070557e-01 3.2638105750083923e-01</leafValues></_></weakClassifiers></stage1>
</opencv_storage>
