<?xml version="1.0"?>
<opencv_storage>
<stage8>
  <maxWeakCount>6</maxWeakCount>
  <stageThreshold>-6.6070330142974854e-01</stageThreshold>
  <weakClassifiers>
    <_>
      <internalNodes>
        0 -1 5653086 -6.0242666222620755e-05</internalNodes>
      <leafValues>
        -8.6597937345504761e-01 5.1148545742034912e-01</leafValues></_>
    <_>
      <internalNodes>
        0 -1 4435053 1.7255447804927826e-02</internalNodes>
      <leafValues>
        -4.5199048519134521e-01 4.5654454827308655e-01</leafValues></_>
    <_>
      <internalNodes>
        0 -1 5391136 -2.0850152941420674e-04</internalNodes>
      <leafValues>
        -9.0260881185531616e-01 2.5326979160308838e-01</leafValues></_>
    <_>
      <internalNodes>
        0 -1 3550544 5.4881675168871880e-04</internalNodes>
      <leafValues>
        -5.3976255655288696e-01 3.9326468110084534e-01</leafValues></_>
    <_>
      <internalNodes>
        0 -1 3142526 -9.8267570137977600e-03</internalNodes>
      <leafValues>
        6.6435420513153076e-01 -3.1415259838104248e-01</leafValues></_>
    <_>
      <internalNodes>
        0 -1 11209601 -4.5114467502571642e-04</internalNodes>
      <leafValues>
        2.7940514683723450e-01 -8.4847271442413330e-01</leafValues></_></weakClassifiers></stage8>
</opencv_storage>
