<?xml version="1.0"?>
<opencv_storage>
<stage5>
  <maxWeakCount>5</maxWeakCount>
  <stageThreshold>-6.4368802309036255e-01</stageThreshold>
  <weakClassifiers>
    <_>
      <internalNodes>
        0 -1 8567534 -2.1557698346441612e-05</internalNodes>
      <leafValues>
        -6.1255115270614624e-01 6.3917070627212524e-01</leafValues></_>
    <_>
      <internalNodes>
        0 -1 7209941 4.4231742620468140e-02</internalNodes>
      <leafValues>
        -4.6641105413436890e-01 6.1412519216537476e-01</leafValues></_>
    <_>
      <internalNodes>
        0 -1 11334046 2.9957615770399570e-03</internalNodes>
      <leafValues>
        -3.4208831191062927e-01 6.4760327339172363e-01</leafValues></_>
    <_>
      <internalNodes>
        0 -1 5451743 -2.4180032312870026e-02</internalNodes>
      <leafValues>
        4.1878861188888550e-01 -5.8956354856491089e-01</leafValues></_>
    <_>
      <internalNodes>
        0 -1 8962343 4.4649634219240397e-05</internalNodes>
      <leafValues>
        -5.8000612258911133e-01 3.5857388377189636e-01</leafValues></_></weakClassifiers></stage5>
</opencv_storage>
