<?xml version="1.0"?>
<opencv_storage>
<stage6>
  <maxWeakCount>5</maxWeakCount>
  <stageThreshold>-9.3388932943344116e-01</stageThreshold>
  <weakClassifiers>
    <_>
      <internalNodes>
        0 -1 8221586 2.4747694624238648e-05</internalNodes>
      <leafValues>
        6.2969213724136353e-01 -7.8378379344940186e-01</leafValues></_>
    <_>
      <internalNodes>
        0 -1 79459 1.3078735210001469e-03</internalNodes>
      <leafValues>
        -5.9611213207244873e-01 5.9697854518890381e-01</leafValues></_>
    <_>
      <internalNodes>
        0 -1 8571329 -1.1119885130028706e-05</internalNodes>
      <leafValues>
        -8.2565146684646606e-01 3.8230276107788086e-01</leafValues></_>
    <_>
      <internalNodes>
        0 -1 4957968 3.3338546752929688e-02</internalNodes>
      <leafValues>
        -6.0841590166091919e-01 4.8472368717193604e-01</leafValues></_>
    <_>
      <internalNodes>
        0 -1 11556801 -1.3521809596568346e-03</internalNodes>
      <leafValues>
        5.3750139474868774e-01 -5.2097100019454956e-01</leafValues></_></weakClassifiers></stage6>
</opencv_storage>
