<?xml version="1.0"?>
<opencv_storage>
<cascade>
  <stageType>BOOST</stageType>
  <featureType>HAAR</featureType>
  <height>70</height>
  <width>70</width>
  <stageParams>
    <boostType>GAB</boostType>
    <minHitRate>9.9500000476837158e-01</minHitRate>
    <maxFalseAlarm>5.0000000000000000e-01</maxFalseAlarm>
    <weightTrimRate>9.4999999999999996e-01</weightTrimRate>
    <maxDepth>1</maxDepth>
    <maxWeakCount>100</maxWeakCount></stageParams>
  <featureParams>
    <maxCatCount>0</maxCatCount>
    <featSize>1</featSize>
    <mode>BASIC</mode></featureParams>
  <stageNum>10</stageNum>
  <stages>
    <!-- stage 0 -->
    <_>
      <maxWeakCount>1</maxWeakCount>
      <stageThreshold>9.5604395866394043e-01</stageThreshold>
      <weakClassifiers>
        <_>
          <internalNodes>
            0 -1 6 -1.2824746966362000e-01</internalNodes>
          <leafValues>
            9.5604395866394043e-01 -9.8668885231018066e-01</leafValues></_></weakClassifiers></_>
    <!-- stage 1 -->
    <_>
      <maxWeakCount>2</maxWeakCount>
      <stageThreshold>-7.6662465929985046e-02</stageThreshold>
      <weakClassifiers>
        <_>
          <internalNodes>
            0 -1 14 4.5314271003007889e-02</internalNodes>
          <leafValues>
            -8.5470849275588989e-01 8.3605313301086426e-01</leafValues></_>
        <_>
          <internalNodes>
            0 -1 10 4.4910617172718048e-02</internalNodes>
          <leafValues>
            -9.1271561384201050e-01 7.9427617788314819e-01</leafValues></_></weakClassifiers></_>
    <!-- stage 2 -->
    <_>
      <maxWeakCount>4</maxWeakCount>
      <stageThreshold>-3.1182470917701721e-01</stageThreshold>
      <weakClassifiers>
        <_>
          <internalNodes>
            0 -1 5 1.0831248015165329e-02</internalNodes>
          <leafValues>
            -5.5986511707305908e-01 7.4648988246917725e-01</leafValues></_>
        <_>
          <internalNodes>
            0 -1 25 1.8781315535306931e-02</internalNodes>
          <leafValues>
            -8.0900400876998901e-01 5.8873134851455688e-01</leafValues></_>
        <_>
          <internalNodes>
            0 -1 2 4.3767895549535751e-03</internalNodes>
          <leafValues>
            -5.4171276092529297e-01 7.1453297138214111e-01</leafValues></_>
        <_>
          <internalNodes>
            0 -1 24 -1.0732282884418964e-02</internalNodes>
          <leafValues>
            4.0113699436187744e-01 -9.6384358406066895e-01</leafValues></_></weakClassifiers></_>
    <!-- stage 3 -->
    <_>
      <maxWeakCount>3</maxWeakCount>
      <stageThreshold>2.4249002337455750e-01</stageThreshold>
      <weakClassifiers>
        <_>
          <internalNodes>
            0 -1 4 -1.1169519275426865e-02</internalNodes>
          <leafValues>
            7.2344392538070679e-01 -6.4761012792587280e-01</leafValues></_>
        <_>
          <internalNodes>
            0 -1 13 2.3080490791471675e-05</internalNodes>
          <leafValues>
            4.6190470457077026e-01 -9.4257801771163940e-01</leafValues></_>
        <_>
          <internalNodes>
            0 -1 13 -1.5664159946027212e-05</internalNodes>
          <leafValues>
            -9.4285857677459717e-01 5.1094472408294678e-01</leafValues></_></weakClassifiers></_>
    <!-- stage 4 -->
    <_>
      <maxWeakCount>4</maxWeakCount>
      <stageThreshold>-5.3759914636611938e-01</stageThreshold>
      <weakClassifiers>
        <_>
          <internalNodes>
            0 -1 3 6.5841913223266602e-02</internalNodes>
          <leafValues>
            -8.1141442060470581e-01 6.4673912525177002e-01</leafValues></_>
        <_>
          <internalNodes>
            0 -1 9 2.5306165218353271e-02</internalNodes>
          <leafValues>
            -8.4667670726776123e-01 4.6015447378158569e-01</leafValues></_>
        <_>
          <internalNodes>
            0 -1 32 -2.0661675371229649e-03</internalNodes>
          <leafValues>
            6.6329669952392578e-01 -5.6508004665374756e-01</leafValues></_>
        <_>
          <internalNodes>
            0 -1 27 2.0388455595821142e-05</internalNodes>
          <leafValues>
            3.7874081730842590e-01 -9.3274569511413574e-01</leafValues></_></weakClassifiers></_>
    <!-- stage 5 -->
    <_>
      <maxWeakCount>3</maxWeakCount>
      <stageThreshold>-8.1852503120899200e-02</stageThreshold>
      <weakClassifiers>
        <_>
          <internalNodes>
            0 -1 27 -1.9506780517986044e-05</internalNodes>
          <leafValues>
            -9.4683545827865601e-01 6.7500001192092896e-01</leafValues></_>
        <_>
          <internalNodes>
            0 -1 16 2.3761504053254612e-05</internalNodes>
          <leafValues>
            4.1759499907493591e-01 -8.3114951848983765e-01</leafValues></_>
        <_>
          <internalNodes>
            0 -1 16 -1.4028102668817155e-05</internalNodes>
          <leafValues>
            -9.2464482784271240e-01 4.4738793373107910e-01</leafValues></_></weakClassifiers></_>
    <!-- stage 6 -->
    <_>
      <maxWeakCount>5</maxWeakCount>
      <stageThreshold>-4.5484921336174011e-01</stageThreshold>
      <weakClassifiers>
        <_>
          <internalNodes>
            0 -1 28 1.7652171663939953e-05</internalNodes>
          <leafValues>
            6.4850974082946777e-01 -7.7376651763916016e-01</leafValues></_>
        <_>
          <internalNodes>
            0 -1 31 -2.1255994215607643e-03</internalNodes>
          <leafValues>
            6.4554125070571899e-01 -5.3157323598861694e-01</leafValues></_>
        <_>
          <internalNodes>
            0 -1 18 2.2582509700441733e-05</internalNodes>
          <leafValues>
            3.5941496491432190e-01 -8.9306211471557617e-01</leafValues></_>
        <_>
          <internalNodes>
            0 -1 30 1.7252692487090826e-05</internalNodes>
          <leafValues>
            3.4070593118667603e-01 -9.3268829584121704e-01</leafValues></_>
        <_>
          <internalNodes>
            0 -1 15 -2.0568815671140328e-05</internalNodes>
          <leafValues>
            -9.4972586631774902e-01 2.4664942920207977e-01</leafValues></_></weakClassifiers></_>
    <!-- stage 7 -->
    <_>
      <maxWeakCount>6</maxWeakCount>
      <stageThreshold>-7.6515847444534302e-01</stageThreshold>
      <weakClassifiers>
        <_>
          <internalNodes>
            0 -1 15 1.8575208741822280e-05</internalNodes>
          <leafValues>
            6.2655043601989746e-01 -8.0704039335250854e-01</leafValues></_>
        <_>
          <internalNodes>
            0 -1 20 -1.7184451280627400e-05</internalNodes>
          <leafValues>
            -8.2640868425369263e-01 4.3532726168632507e-01</leafValues></_>
        <_>
          <internalNodes>
            0 -1 11 -1.0846257209777832e-02</internalNodes>
          <leafValues>
            5.7305806875228882e-01 -4.8577070236206055e-01</leafValues></_>
        <_>
          <internalNodes>
            0 -1 22 8.4330020472407341e-03</internalNodes>
          <leafValues>
            -8.4597623348236084e-01 3.6270388960838318e-01</leafValues></_>
        <_>
          <internalNodes>
            0 -1 1 2.8603854589164257e-03</internalNodes>
          <leafValues>
            -5.5965673923492432e-01 5.1755797863006592e-01</leafValues></_>
        <_>
          <internalNodes>
            0 -1 23 1.6921978385653347e-05</internalNodes>
          <leafValues>
            2.8927823901176453e-01 -8.8981008529663086e-01</leafValues></_></weakClassifiers></_>
    <!-- stage 8 -->
    <_>
      <maxWeakCount>5</maxWeakCount>
      <stageThreshold>-4.7580966353416443e-01</stageThreshold>
      <weakClassifiers>
        <_>
          <internalNodes>
            0 -1 23 -1.5281037121894769e-05</internalNodes>
          <leafValues>
            -7.5308644771575928e-01 6.7191326618194580e-01</leafValues></_>
        <_>
          <internalNodes>
            0 -1 7 8.4202557802200317e-02</internalNodes>
          <leafValues>
            -5.6791967153549194e-01 5.0478750467300415e-01</leafValues></_>
        <_>
          <internalNodes>
            0 -1 21 1.3702221622224897e-05</internalNodes>
          <leafValues>
            2.8893563151359558e-01 -8.9421927928924561e-01</leafValues></_>
        <_>
          <internalNodes>
            0 -1 17 1.7833855003118515e-02</internalNodes>
          <leafValues>
            -6.9041150808334351e-01 3.5844206809997559e-01</leafValues></_>
        <_>
          <internalNodes>
            0 -1 8 3.1099867192097008e-04</internalNodes>
          <leafValues>
            -8.7488847970962524e-01 2.7803745865821838e-01</leafValues></_></weakClassifiers></_>
    <!-- stage 9 -->
    <_>
      <maxWeakCount>5</maxWeakCount>
      <stageThreshold>-1.0541990995407104e+00</stageThreshold>
      <weakClassifiers>
        <_>
          <internalNodes>
            0 -1 19 -1.3838231097906828e-05</internalNodes>
          <leafValues>
            -8.0300956964492798e-01 6.0847961902618408e-01</leafValues></_>
        <_>
          <internalNodes>
            0 -1 0 2.9839454218745232e-03</internalNodes>
          <leafValues>
            -6.4550840854644775e-01 5.0914627313613892e-01</leafValues></_>
        <_>
          <internalNodes>
            0 -1 12 1.2483702448662370e-05</internalNodes>
          <leafValues>
            4.4787383079528809e-01 -7.8028112649917603e-01</leafValues></_>
        <_>
          <internalNodes>
            0 -1 26 2.8412970714271069e-03</internalNodes>
          <leafValues>
            -8.7564933300018311e-01 2.3584926128387451e-01</leafValues></_>
        <_>
          <internalNodes>
            0 -1 29 -8.2990969531238079e-05</internalNodes>
          <leafValues>
            4.2197385430335999e-01 -5.8939474821090698e-01</leafValues></_></weakClassifiers></_></stages>
  <features>
    <_>
      <rects>
        <_>
          0 9 6 52 -1.</_>
        <_>
          3 9 3 52 2.</_></rects>
      <tilted>0</tilted></_>
    <_>
      <rects>
        <_>
          0 11 4 55 -1.</_>
        <_>
          2 11 2 55 2.</_></rects>
      <tilted>0</tilted></_>
    <_>
      <rects>
        <_>
          0 15 6 42 -1.</_>
        <_>
          3 15 3 42 2.</_></rects>
      <tilted>0</tilted></_>
    <_>
      <rects>
        <_>
          16 2 37 27 -1.</_>
        <_>
          16 11 37 9 3.</_></rects>
      <tilted>0</tilted></_>
    <_>
      <rects>
        <_>
          17 60 38 10 -1.</_>
        <_>
          17 65 38 5 2.</_></rects>
      <tilted>0</tilted></_>
    <_>
      <rects>
        <_>
          19 0 36 10 -1.</_>
        <_>
          19 5 36 5 2.</_></rects>
      <tilted>0</tilted></_>
    <_>
      <rects>
        <_>
          21 13 27 48 -1.</_>
        <_>
          21 29 27 16 3.</_></rects>
      <tilted>0</tilted></_>
    <_>
      <rects>
        <_>
          22 0 24 30 -1.</_>
        <_>
          22 10 24 10 3.</_></rects>
      <tilted>0</tilted></_>
    <_>
      <rects>
        <_>
          22 10 21 16 -1.</_>
        <_>
          29 10 7 16 3.</_></rects>
      <tilted>0</tilted></_>
    <_>
      <rects>
        <_>
          25 43 21 14 -1.</_>
        <_>
          25 50 21 7 2.</_></rects>
      <tilted>0</tilted></_>
    <_>
      <rects>
        <_>
          26 0 18 30 -1.</_>
        <_>
          26 10 18 10 3.</_></rects>
      <tilted>0</tilted></_>
    <_>
      <rects>
        <_>
          26 1 44 10 -1.</_>
        <_>
          26 1 22 5 2.</_>
        <_>
          48 6 22 5 2.</_></rects>
      <tilted>0</tilted></_>
    <_>
      <rects>
        <_>
          26 14 18 3 -1.</_>
        <_>
          35 14 9 3 2.</_></rects>
      <tilted>0</tilted></_>
    <_>
      <rects>
        <_>
          27 15 15 1 -1.</_>
        <_>
          32 15 5 1 3.</_></rects>
      <tilted>0</tilted></_>
    <_>
      <rects>
        <_>
          27 43 17 27 -1.</_>
        <_>
          27 52 17 9 3.</_></rects>
      <tilted>0</tilted></_>
    <_>
      <rects>
        <_>
          27 56 12 1 -1.</_>
        <_>
          33 56 6 1 2.</_></rects>
      <tilted>0</tilted></_>
    <_>
      <rects>
        <_>
          28 56 15 1 -1.</_>
        <_>
          33 56 5 1 3.</_></rects>
      <tilted>0</tilted></_>
    <_>
      <rects>
        <_>
          29 49 12 21 -1.</_>
        <_>
          29 56 12 7 3.</_></rects>
      <tilted>0</tilted></_>
    <_>
      <rects>
        <_>
          29 56 12 1 -1.</_>
        <_>
          33 56 4 1 3.</_></rects>
      <tilted>0</tilted></_>
    <_>
      <rects>
        <_>
          30 15 12 2 -1.</_>
        <_>
          36 15 6 2 2.</_></rects>
      <tilted>0</tilted></_>
    <_>
      <rects>
        <_>
          30 56 12 2 -1.</_>
        <_>
          36 56 6 2 2.</_></rects>
      <tilted>0</tilted></_>
    <_>
      <rects>
        <_>
          31 13 7 3 -1.</_>
        <_>
          31 14 7 1 3.</_></rects>
      <tilted>0</tilted></_>
    <_>
      <rects>
        <_>
          31 46 8 18 -1.</_>
        <_>
          31 52 8 6 3.</_></rects>
      <tilted>0</tilted></_>
    <_>
      <rects>
        <_>
          31 55 10 2 -1.</_>
        <_>
          36 55 5 2 2.</_></rects>
      <tilted>0</tilted></_>
    <_>
      <rects>
        <_>
          32 15 6 20 -1.</_>
        <_>
          32 25 6 10 2.</_></rects>
      <tilted>0</tilted></_>
    <_>
      <rects>
        <_>
          32 45 8 24 -1.</_>
        <_>
          32 53 8 8 3.</_></rects>
      <tilted>0</tilted></_>
    <_>
      <rects>
        <_>
          33 2 7 21 -1.</_>
        <_>
          33 9 7 7 3.</_></rects>
      <tilted>0</tilted></_>
    <_>
      <rects>
        <_>
          33 12 4 4 -1.</_>
        <_>
          33 14 4 2 2.</_></rects>
      <tilted>0</tilted></_>
    <_>
      <rects>
        <_>
          34 13 4 6 -1.</_>
        <_>
          34 15 4 2 3.</_></rects>
      <tilted>0</tilted></_>
    <_>
      <rects>
        <_>
          34 37 3 8 -1.</_>
        <_>
          34 41 3 4 2.</_></rects>
      <tilted>0</tilted></_>
    <_>
      <rects>
        <_>
          34 56 6 2 -1.</_>
        <_>
          37 56 3 2 2.</_></rects>
      <tilted>0</tilted></_>
    <_>
      <rects>
        <_>
          66 12 4 45 -1.</_>
        <_>
          68 12 2 45 2.</_></rects>
      <tilted>0</tilted></_>
    <_>
      <rects>
        <_>
          66 17 4 41 -1.</_>
        <_>
          68 17 2 41 2.</_></rects>
      <tilted>0</tilted></_></features></cascade>
</opencv_storage>
