<?xml version="1.0"?>
<opencv_storage>
<stage6>
  <maxWeakCount>5</maxWeakCount>
  <stageThreshold>-5.8154273033142090e-01</stageThreshold>
  <weakClassifiers>
    <_>
      <internalNodes>
        0 -1 227347 7.5165356975048780e-04</internalNodes>
      <leafValues>
        -7.1914893388748169e-01 6.5664488077163696e-01</leafValues></_>
    <_>
      <internalNodes>
        0 -1 3269283 -2.4994995328597724e-05</internalNodes>
      <leafValues>
        -9.5896500349044800e-01 3.7371292710304260e-01</leafValues></_>
    <_>
      <internalNodes>
        0 -1 4079203 1.5252187040459830e-05</internalNodes>
      <leafValues>
        2.3688504099845886e-01 -9.5540434122085571e-01</leafValues></_>
    <_>
      <internalNodes>
        0 -1 3528597 3.0157826840877533e-03</internalNodes>
      <leafValues>
        -8.9313417673110962e-01 3.1910949945449829e-01</leafValues></_>
    <_>
      <internalNodes>
        0 -1 10281106 6.4015582203865051e-02</internalNodes>
      <leafValues>
        -6.3399136066436768e-01 4.2014241218566895e-01</leafValues></_></weakClassifiers></stage6>
</opencv_storage>
